{"learner":{"attributes":{"best_iteration":"99","best_ntree_limit":"100","scikit_learn":"{\"use_label_encoder\": null, \"n_estimators\": 100, \"objective\": \"multi:softprob\", \"max_depth\": null, \"max_leaves\": null, \"max_bin\": null, \"grow_policy\": null, \"learning_rate\": null, \"verbosity\": null, \"booster\": \"gbtree\", \"tree_method\": \"approx\", \"gamma\": null, \"min_child_weight\": null, \"max_delta_step\": null, \"subsample\": null, \"sampling_method\": null, \"colsample_bytree\": null, \"colsample_bylevel\": null, \"colsample_bynode\": null, \"reg_alpha\": null, \"reg_lambda\": null, \"scale_pos_weight\": null, \"base_score\": null, \"missing\": NaN, \"num_parallel_tree\": null, \"random_state\": null, \"n_jobs\": -1, \"monotone_constraints\": null, \"interaction_constraints\": null, \"importance_type\": null, \"gpu_id\": null, \"validate_parameters\": null, \"predictor\": null, \"enable_categorical\": false, \"feature_types\": null, \"max_cat_to_onehot\": null, \"max_cat_threshold\": null, \"eval_metric\": null, \"early_stopping_rounds\": null, \"callbacks\": null, \"classes_\": [0, 1, 2, 3, 4, 5, 6, 7, 8, 9, 10, 11, 12, 13, 14, 15, 16, 17, 18, 19, 20, 21], \"n_classes_\": 22, \"_estimator_type\": \"classifier\"}"},"feature_names":["nitrogen","phosphorus","potassium","temperature","humidity","ph"],"feature_types":["int","int","int","float","float","float"],"gradient_booster":{"model":{"gbtree_model_param":{"num_parallel_tree":"1","num_trees":"2200","size_leaf_vector":"0"},"tree_info":[0,1,2,3,4,5,6,7,8,9,10,11,12,13,14,15,16,17,18,19,20,21,0,1,2,3,4,5,6,7,8,9,10,11,12,13,14,15,16,17,18,19,20,21,0,1,2,3,4,5,6,7,8,9,10,11,12,13,14,15,16,17,18,19,20,21,0,1,2,3,4,5,6,7,8,9,10,11,12,13,14,15,16,17,18,19,20,21,0,1,2,3,4,5,6,7,8,9,10,11,12,13,14,15,16,17,18,19,20,21,0,1,2,3,4,5,6,7,8,9,10,11,12,13,14,15,16,17,18,19,20,21,0,1,2,3,4,5,6,7,8,9,10,11,12,13,14,15,16,17,18,19,20,21,0,1,2,3,4,5,6,7,8,9,10,11,12,13,14,15,16,17,18,19,20,21,0,1,2,3,4,5,6,7,8,9,10,11,12,13,14,15,16,17,18,19,20,21,0,1,2,3,4,5,6,7,8,9,10,11,12,13,14,15,16,17,18,19,20,21,0,1,2,3,4,5,6,7,8,9,10,11,12,13,14,15,16,17,18,19,20,21,0,1,2,3,4,5,6,7,8,9,10,11,12,13,14,15,16,17,18,19,20,21,0,1,2,3,4,5,6,7,8,9,10,11,12,13,14,15,16,17,18,19,20,21,0,1,2,3,4,5,6,7,8,9,10,11,12,13,14,15,16,17,18,19,20,21,0,1,2,3,4,5,6,7,8,9,10,11,12,13,14,15,16,17,18,19,20,21,0,1,2,3,4,5,6,7,8,9,10,11,12,13,14,15,16,17,18,19,20,21,0,1,2,3,4,5,6,7,8,9,10,11,12,13,14,15,16,17,18,19,20,21,0,1,2,3,4,5,6,7,8,9,10,11,12,13,14,15,16,17,18,19,20,21,0,1,2,3,4,5,6,7,8,9,10,11,12,13,14,15,16,17,18,19,20,21,0,1,2,3,4,5,6,7,8,9,10,11,12,13,14,15,16,17,18,19,20,21,0,1,2,3,4,5,6,7,8,9,10,11,12,13,14,15,16,17,18,19,20,21,0,1,2,3,4,5,6,7,8,9,10,11,12,13,14,15,16,17,18,19,20,21,0,1,2,3,4,5,6,7,8,9,10,11,12,13,14,15,16,17,18,19,20,21,0,1,2,3,4,5,6,7,8,9,10,11,12,13,14,15,16,17,18,19,20,21,0,1,2,3,4,5,6,7,8,9,10,11,12,13,14,15,16,17,18,19,20,21,0,1,2,3,4,5,6,7,8,9,10,11,12,13,14,15,16,17,18,19,20,21,0,1,2,3,4,5,6,7,8,9,10,11,12,13,14,15,16,17,18,19,20,21,0,1,2,3,4,5,6,7,8,9,10,11,12,13,14,15,16,17,18,19,20,21,0,1,2,3,4,5,6,7,8,9,10,11,12,13,14,15,16,17,18,19,20,21,0,1,2,3,4,5,6,7,8,9,10,11,12,13,14,15,16,17,18,19,20,21,0,1,2,3,4,5,6,7,8,9,10,11,12,13,14,15,16,17,18,19,20,21,0,1,2,3,4,5,6,7,8,9,10,11,12,13,14,15,16,17,18,19,20,21,0,1,2,3,4,5,6,7,8,9,10,11,12,13,14,15,16,17,18,19,20,21,0,1,2,3,4,5,6,7,8,9,10,11,12,13,14,15,16,17,18,19,20,21,0,1,2,3,4,5,6,7,8,9,10,11,12,13,14,15,16,17,18,19,20,21,0,1,2,3,4,5,6,7,8,9,10,11,12,13,14,15,16,17,18,19,20,21,0,1,2,3,4,5,6,7,8,9,10,11,12,13,14,15,16,17,18,19,20,21,0,1,2,3,4,5,6,7,8,9,10,11,12,13,14,15,16,17,18,19,20,21,0,1,2,3,4,5,6,7,8,9,10,11,12,13,14,15,16,17,18,19,20,21,0,1,2,3,4,5,6,7,8,9,10,11,12,13,14,15,16,17,18,19,20,21,0,1,2,3,4,5,6,7,8,9,10,11,12,13,14,15,16,17,18,19,20,21,0,1,2,3,4,5,6,7,8,9,10,11,12,13,14,15,16,17,18,19,20,21,0,1,2,3,4,5,6,7,8,9,10,11,12,13,14,15,16,17,18,19,20,21,0,1,2,3,4,5,6,7,8,9,10,11,12,13,14,15,16,17,18,19,20,21,0,1,2,3,4,5,6,7,8,9,10,11,12,13,14,15,16,17,18,19,20,21,0,1,2,3,4,5,6,7,8,9,10,11,12,13,14,15,16,17,18,19,20,21,0,1,2,3,4,5,6,7,8,9,10,11,12,13,14,15,16,17,18,19,20,21,0,1,2,3,4,5,6,7,8,9,10,11,12,13,14,15,16,17,18,19,20,21,0,1,2,3,4,5,6,7,8,9,10,11,12,13,14,15,16,17,18,19,20,21,0,1,2,3,4,5,6,7,8,9,10,11,12,13,14,15,16,17,18,19,20,21,0,1,2,3,4,5,6,7,8,9,10,11,12,13,14,15,16,17,18,19,20,21,0,1,2,3,4,5,6,7,8,9,10,11,12,13,14,15,16,17,18,19,20,21,0,1,2,3,4,5,6,7,8,9,10,11,12,13,14,15,16,17,18,19,20,21,0,1,2,3,4,5,6,7,8,9,10,11,12,13,14,15,16,17,18,19,20,21,0,1,2,3,4,5,6,7,8,9,10,11,12,13,14,15,16,17,18,19,20,21,0,1,2,3,4,5,6,7,8,9,10,11,12,13,14,15,16,17,18,19,20,21,0,1,2,3,4,5,6,7,8,9,10,11,12,13,14,15,16,17,18,19,20,21,0,1,2,3,4,5,6,7,8,9,10,11,12,13,14,15,16,17,18,19,20,21,0,1,2,3,4,5,6,7,8,9,10,11,12,13,14,15,16,17,18,19,20,21,0,1,2,3,4,5,6,7,8,9,10,11,12,13,14,15,16,17,18,19,20,21,0,1,2,3,4,5,6,7,8,9,10,11,12,13,14,15,16,17,18,19,20,21,0,1,2,3,4,5,6,7,8,9,10,11,12,13,14,15,16,17,18,19,20,21,0,1,2,3,4,5,6,7,8,9,10,11,12,13,14,15,16,17,18,19,20,21,0,1,2,3,4,5,6,7,8,9,10,11,12,13,14,15,16,17,18,19,20,21,0,1,2,3,4,5,6,7,8,9,10,11,12,13,14,15,16,17,18,19,20,21,0,1,2,3,4,5,6,7,8,9,10,11,12,13,14,15,16,17,18,19,20,21,0,1,2,3,4,5,6,7,8,9,10,11,12,13,14,15,16,17,18,19,20,21,0,1,2,3,4,5,6,7,8,9,10,11,12,13,14,15,16,17,18,19,20,21,0,1,2,3,4,5,6,7,8,9,10,11,12,13,14,15,16,17,18,19,20,21,0,1,2,3,4,5,6,7,8,9,10,11,12,13,14,15,16,17,18,19,20,21,0,1,2,3,4,5,6,7,8,9,10,11,12,13,14,15,16,17,18,19,20,21,0,1,2,3,4,5,6,7,8,9,10,11,12,13,14,15,16,17,18,19,20,21,0,1,2,3,4,5,6,7,8,9,10,11,12,13,14,15,16,17,18,19,20,21,0,1,2,3,4,5,6,7,8,9,10,11,12,13,14,15,16,17,18,19,20,21,0,1,2,3,4,5,6,7,8,9,10,11,12,13,14,15,16,17,18,19,20,21,0,1,2,3,4,5,6,7,8,9,10,11,12,13,14,15,16,17,18,19,20,21,0,1,2,3,4,5,6,7,8,9,10,11,12,13,14,15,16,17,18,19,20,21,0,1,2,3,4,5,6,7,8,9,10,11,12,13,14,15,16,17,18,19,20,21,0,1,2,3,4,5,6,7,8,9,10,11,12,13,14,15,16,17,18,19,20,21,0,1,2,3,4,5,6,7,8,9,10,11,12,13,14,15,16,17,18,19,20,21,0,1,2,3,4,5,6,7,8,9,10,11,12,13,14,15,16,17,18,19,20,21,0,1,2,3,4,5,6,7,8,9,10,11,12,13,14,15,16,17,18,19,20,21,0,1,2,3,4,5,6,7,8,9,10,11,12,13,14,15,16,17,18,19,20,21,0,1,2,3,4,5,6,7,8,9,10,11,12,13,14,15,16,17,18,19,20,21,0,1,2,3,4,5,6,7,8,9,10,11,12,13,14,15,16,17,18,19,20,21,0,1,2,3,4,5,6,7,8,9,10,11,12,13,14,15,16,17,18,19,20,21,0,1,2,3,4,5,6,7,8,9,10,11,12,13,14,15,16,17,18,19,20,21,0,1,2,3,4,5,6,7,8,9,10,11,12,13,14,15,16,17,18,19,20,21,0,1,2,3,4,5,6,7,8,9,10,11,12,13,14,15,16,17,18,19,20,21,0,1,2,3,4,5,6,7,8,9,10,11,12,13,14,15,16,17,18,19,20,21,0,1,2,3,4,5,6,7,8,9,10,11,12,13,14,15,16,17,18,19,20,21,0,1,2,3,4,5,6,7,8,9,10,11,12,13,14,15,16,17,18,19,20,21,0,1,2,3,4,5,6,7,8,9,10,11,12,13,14,15,16,17,18,19,20,21,0,1,2,3,4,5,6,7,8,9,10,11,12,13,14,15,16,17,18,19,20,21,0,1,2,3,4,5,6,7,8,9,10,11,12,13,14,15,16,17,18,19,20,21,0,1,2,3,4,5,6,7,8,9,10,11,12,13,14,15,16,17,18,19,20,21,0,1,2,3,4,5,6,7,8,9,10,11,12,13,14,15,16,17,18,19,20,21,0,1,2,3,4,5,6,7,8,9,10,11,12,13,14,15,16,17,18,19,20,21,0,1,2,3,4,5,6,7,8,9,10,11,12,13,14,15,16,17,18,19,20,21,0,1,2,3,4,5,6,7,8,9,10,11,12,13,14,15,16,17,18,19,20,21],"trees":[{"base_weights":[3.9030135E-2,-1.5601355E-1,5.0302386E0,-1.3778006E-1,2.9100587E0],"categories":[],"categories_nodes":[],"categories_segments":[],"categories_sizes":[],"default_left":[0,0,0,0,0],"id":0,"left_children":[1,-1,3,-1,-1],"loss_changes":[4.3158597E2,0E0,4.0382184E2,0E0,0E0],"parents":[2147483647,0,0,2,2],"right_children":[2,-1,4,-1,-1],"split_conditions":[1.2E2,-1.5601355E-1,8.415404E1,-1.3778006E-1,2.9100587E0],"split_indices":[1,0,4,0,0],"split_type":[0,0,0,0,0],"sum_hessian":[1.5272728E2,1.3814876E2,1.4578512E1,7.1157026E0,7.46281E0],"tree_param":{"num_deleted":"0","num_feature":"6","num_nodes":"5","size_leaf_vector":"0"}},{"base_weights":[6.505003E-3,-1.5579298E-1,1.6039689E0,-1.5211993E-1,2.888986E0],"categories":[],"categories_nodes":[],"categories_segments":[],"categories_sizes":[],"default_left":[0,0,0,0,0],"id":1,"left_children":[1,-1,3,-1,-1],"loss_changes":[1.2995932E2,0E0,6.540432E2,0E0,0E0],"parents":[2147483647,0,0,2,2],"right_children":[2,-1,4,-1,-1],"split_conditions":[7E1,-1.5579298E-1,6.9E1,-1.5211993E-1,2.888986E0],"split_indices":[1,0,0,0,0],"split_type":[0,0,0,0,0],"sum_hessian":[1.5272728E2,1.1541322E2,3.731405E1,3.0285124E1,7.028926E0],"tree_param":{"num_deleted":"0","num_feature":"6","num_nodes":"5","size_leaf_vector":"0"}},{"base_weights":[6.505003E-3,7.8186625E-1,-1.5544015E-1,-4.1486716E-1,3.0139542E0,-1.5313226E-1,8.29419E-1,-2.0700058E-2,5.5533237E0,-8.619403E-2,4.8058254E-1,-1.3857423E-1,1.0470035E0,-1.0146414E-1,6.648549E0,-9.36561E-2,6.546559E-1,-8.330098E-2,7.5492177E0,3.6072877E-1,2.4689908E0],"categories":[],"categories_nodes":[],"categories_segments":[],"categories_sizes":[],"default_left":[0,0,0,0,0,0,0,0,0,0,0,0,0,0,0,0,0,0,0,0,0],"id":2,"left_children":[1,3,-1,5,7,-1,9,11,13,-1,-1,-1,15,-1,17,-1,-1,-1,19,-1,-1],"loss_changes":[6.2939E1,1.6803574E2,0E0,5.36154E0,1.6898062E2,0E0,3.3442483E0,5.655836E0,7.925275E1,0E0,0E0,0E0,6.107007E0,0E0,6.51745E1,0E0,0E0,0E0,2.8917847E1,0E0,0E0],"parents":[2147483647,0,0,1,1,3,3,4,4,6,6,7,7,8,8,12,12,14,14,18,18],"right_children":[2,4,-1,6,8,-1,10,12,14,-1,-1,-1,16,-1,18,-1,-1,-1,20,-1,-1],"split_conditions":[7.114783E1,6.1027016E1,-1.5544015E-1,6.0115936E1,2.6181597E1,-1.5313226E-1,2.5198578E1,2.5198578E1,5.5E1,-8.619403E-2,4.8058254E-1,-1.3857423E-1,6.1E1,-1.0146414E-1,2E1,-9.36561E-2,6.546559E-1,-8.330098E-2,6.524478E0,3.6072877E-1,2.4689908E0],"split_indices":[4,4,0,4,3,0,3,3,1,0,0,0,1,0,0,0,0,0,5,0,0],"split_type":[0,0,0,0,0,0,0,0,0,0,0,0,0,0,0,0,0,0,0,0,0],"sum_hessian":[1.5272728E2,6.143802E1,9.128925E1,4.0524796E1,2.0913223E1,3.818182E1,2.3429751E0,9.979339E0,1.0933885E1,1.214876E0,1.1280992E0,7.46281E0,2.5165288E0,1.822314E0,9.11157E0,1.4752066E0,1.0413224E0,1.1280992E0,7.983471E0,1.0413224E0,6.9421487E0],"tree_param":{"num_deleted":"0","num_feature":"6","num_nodes":"21","size_leaf_vector":"0"}},{"base_weights":[6.505003E-3,7.2068963E0,-1.5605296E-1,-1.1245594E-1,2.888986E0],"categories":[],"categories_nodes":[],"categories_segments":[],"categories_sizes":[],"default_left":[0,0,0,0,0],"id":3,"left_children":[1,3,-1,-1,-1],"loss_changes":[5.8673083E2,1.9734045E2,0E0,0E0,0E0],"parents":[2147483647,0,0,1,1],"right_children":[2,4,-1,-1,-1],"split_conditions":[2.0318712E1,2.6E1,-1.5605296E-1,-1.1245594E-1,2.888986E0],"split_indices":[4,2,0,0,0],"split_type":[0,0,0,0,0],"sum_hessian":[1.5272728E2,9.545455E0,1.4318182E2,2.5165288E0,7.028926E0],"tree_param":{"num_deleted":"0","num_feature":"6","num_nodes":"5","size_leaf_vector":"0"}},{"base_weights":[-1.3010076E-2,-2.8045157E-1,2.5895019E0,-5.1126236E-1,6.748466E-1,-1.5580988E-1,-1.8948324E-1,2.9893746E0,-1.4948662E-1,6.6801615E-2,-1.1245594E-1,-1.3465406E-1,2.4270542E0],"categories":[],"categories_nodes":[],"categories_segments":[],"categories_sizes":[],"default_left":[0,0,0,0,0,0,0,0,0,0,0,0,0],"id":4,"left_children":[1,3,-1,5,7,-1,9,11,-1,-1,-1,-1,-1],"loss_changes":[3.5783002E2,3.3437214E1,0E0,2.1828079E-1,8.195985E1,0E0,4.3169457E-1,1.8096492E2,0E0,0E0,0E0,0E0,0E0],"parents":[2147483647,0,0,1,1,3,3,4,4,6,6,7,7],"right_children":[2,4,-1,6,8,-1,10,12,-1,-1,-1,-1,-1],"split_conditions":[9.5016304E1,9.078821E1,2.5895019E0,9.027214E1,3.6E1,-1.5580988E-1,1.8E1,1.6E1,-1.4948662E-1,6.6801615E-2,-1.1245594E-1,-1.3465406E-1,2.4270542E0],"split_indices":[4,4,0,4,2,0,1,2,0,0,0,0,0],"split_type":[0,0,0,0,0,0,0,0,0,0,0,0,0],"sum_hessian":[1.5272728E2,1.4908264E2,3.644628E0,1.2044628E2,2.8636364E1,1.1688843E2,3.5578513E0,9.11157E0,1.9524794E1,1.0413224E0,2.5165288E0,5.987603E0,3.123967E0],"tree_param":{"num_deleted":"0","num_feature":"6","num_nodes":"13","size_leaf_vector":"0"}},{"base_weights":[-1.9515103E-2,-1.557309E-1,1.2610598E0,7.6330433E0,-1.5264404E-1,-9.781592E-2,2.8035245E0],"categories":[],"categories_nodes":[],"categories_segments":[],"categories_sizes":[],"default_left":[0,0,0,0,0,0,0],"id":5,"left_children":[1,-1,3,5,-1,-1,-1],"loss_changes":[9.9003136E1,0E0,4.9371396E2,1.3255292E2,0E0,0E0,0E0],"parents":[2147483647,0,0,2,2,3,3],"right_children":[2,-1,4,6,-1,-1,-1],"split_conditions":[8E1,-1.557309E-1,6.9961E1,2.4E1,-1.5264404E-1,-9.781592E-2,2.8035245E0],"split_indices":[0,0,4,2,0,0,0],"split_type":[0,0,0,0,0,0,0],"sum_hessian":[1.5272728E2,1.1029339E2,4.2433884E1,8.504132E0,3.3929752E1,1.6487603E0,6.855372E0],"tree_param":{"num_deleted":"0","num_feature":"6","num_nodes":"7","size_leaf_vector":"0"}},{"base_weights":[-2.3263787E-8,-2.2170731E-1,2.4825997E0,-1.5595737E-1,1.8551068E0,2.3600154E0,-1.4646068E-1],"categories":[],"categories_nodes":[],"categories_segments":[],"categories_sizes":[],"default_left":[0,0,0,0,0,0,0],"id":6,"left_children":[1,3,-1,-1,5,-1,-1],"loss_changes":[2.838784E2,9.427217E1,0E0,0E0,2.7341568E2,0E0,0E0],"parents":[2147483647,0,0,1,1,4,4],"right_children":[2,4,-1,-1,6,-1,-1],"split_conditions":[1.21E2,1E2,2.4825997E0,-1.5595737E-1,2.6E1,2.3600154E0,-1.4646068E-1],"split_indices":[0,0,0,0,2,0,0],"split_type":[0,0,0,0,0,0,0],"sum_hessian":[1.5272728E2,1.4969008E2,3.0371902E0,1.3155373E2,1.8136364E1,4.42562E0,1.3710744E1],"tree_param":{"num_deleted":"0","num_feature":"6","num_nodes":"7","size_leaf_vector":"0"}},{"base_weights":[1.301003E-2,-1.5601355E-1,4.7734747E0,2.8933809E0,-1.3857423E-1],"categories":[],"categories_nodes":[],"categories_segments":[],"categories_sizes":[],"default_left":[0,0,0,0,0],"id":7,"left_children":[1,-1,3,-1,-1],"loss_changes":[3.9257925E2,0E0,4.0174203E2,0E0,0E0],"parents":[2147483647,0,0,2,2],"right_children":[2,-1,4,-1,-1],"split_conditions":[1.2E2,-1.5601355E-1,8.415404E1,2.8933809E0,-1.3857423E-1],"split_indices":[1,0,4,0,0],"split_type":[0,0,0,0,0],"sum_hessian":[1.5272728E2,1.3814876E2,1.4578512E1,7.1157026E0,7.46281E0],"tree_param":{"num_deleted":"0","num_feature":"6","num_nodes":"5","size_leaf_vector":"0"}},{"base_weights":[6.505003E-3,-1.5554246E-1,9.181406E-1,2.2403293E0,-2.4829707E-1,-1.379849E-1,3.2667234E0,2.5872532E-1,-1.4967604E-1,5.0312204E0,-1.3519908E-1,9.7529066E-1,-1.3182424E-1,-1.03125006E-1,5.96753E0,-1.0146414E-1,1.6823529E0,-8.619403E-2,2.0242338E0,7.776435E-1,-8.330098E-2],"categories":[],"categories_nodes":[],"categories_segments":[],"categories_sizes":[],"default_left":[0,0,0,0,0,0,0,0,0,0,0,0,0,0,0,0,0,0,0,0,0],"id":8,"left_children":[1,-1,3,5,7,-1,9,11,-1,13,-1,15,-1,-1,17,-1,19,-1,-1,-1,-1],"loss_changes":[7.4048416E1,0E0,8.775079E1,7.522348E1,4.0604234E0,0E0,1.2949648E2,5.8776975E0,0E0,6.866098E1,0E0,5.849704E0,0E0,0E0,5.7191864E1,0E0,7.6094475E0,0E0,0E0,0E0,0E0],"parents":[2147483647,0,0,2,2,3,3,4,4,6,6,7,7,9,9,11,11,14,14,16,16],"right_children":[2,-1,4,6,8,-1,10,12,-1,14,-1,16,-1,-1,18,-1,20,-1,-1,-1,-1],"split_conditions":[6E1,-1.5554246E-1,9.1E1,3.5E1,1.01E2,-1.379849E-1,4.6E1,2.5412376E1,-1.4967604E-1,6.014572E0,-1.3519908E-1,3.3E1,-1.3182424E-1,-1.03125006E-1,2.3059519E1,-1.0146414E-1,4.2E1,-8.619403E-2,2.0242338E0,7.776435E-1,-8.330098E-2],"split_indices":[0,0,0,2,0,0,2,3,0,5,0,2,0,0,3,0,2,0,0,0,0],"split_type":[0,0,0,0,0,0,0,0,0,0,0,0,0,0,0,0,0,0,0,0,0],"sum_hessian":[1.5272728E2,9.719009E1,5.553719E1,2.5599174E1,2.9938017E1,7.2024794E0,1.8396694E1,9.892562E0,2.0045454E1,1.2235538E1,6.161157E0,4.6859503E0,5.2066116E0,1.9090909E0,1.0326447E1,1.822314E0,2.8636365E0,1.214876E0,9.11157E0,1.7355372E0,1.1280992E0],"tree_param":{"num_deleted":"0","num_feature":"6","num_nodes":"21","size_leaf_vector":"0"}},{"base_weights":[3.9030135E-2,4.938951E0,-1.5601143E-1,2.789212E0,-1.3757077E-1],"categories":[],"categories_nodes":[],"categories_segments":[],"categories_sizes":[],"default_left":[0,0,0,0,0],"id":9,"left_children":[1,3,-1,-1,-1],"loss_changes":[4.236874E2,3.7686707E2,0E0,0E0,0E0],"parents":[2147483647,0,0,1,1],"right_children":[2,4,-1,-1,-1],"split_conditions":[3.231529E1,2.6E1,-1.5601143E-1,2.789212E0,-1.3757077E-1],"split_indices":[4,2,0,0,0],"split_type":[0,0,0,0,0],"sum_hessian":[1.5272728E2,1.4838843E1,1.3788843E2,7.8099174E0,7.028926E0],"tree_param":{"num_deleted":"0","num_feature":"6","num_nodes":"5","size_leaf_vector":"0"}},{"base_weights":[-1.3010076E-2,7.4617386E-1,-1.5545127E-1,-1.5313226E-1,2.79661E0,5.220677E0,-1.4283027E-1,6.9797406E0,4.0665414E-2,-8.016195E-2,2.3499098E0,2.1376519E-1,-1.113253E-1],"categories":[],"categories_nodes":[],"categories_segments":[],"categories_sizes":[],"default_left":[0,0,0,0,0,0,0,0,0,0,0,0,0],"id":10,"left_children":[1,3,-1,-1,5,7,-1,9,11,-1,-1,-1,-1],"loss_changes":[5.9342594E1,1.6074069E2,0E0,0E0,1.9009758E2,1.24271515E2,0E0,6.5157166E1,1.5013328E0,0E0,0E0,0E0,0E0],"parents":[2147483647,0,0,1,1,4,4,5,5,7,7,8,8],"right_children":[2,4,-1,-1,6,8,-1,10,12,-1,-1,-1,-1],"split_conditions":[6.9961E1,6.0115936E1,-1.5545127E-1,-1.5313226E-1,4.1E1,2.9221186E1,-1.4283027E-1,5.6E1,2.9914545E1,-8.016195E-2,2.3499098E0,2.1376519E-1,-1.113253E-1],"split_indices":[4,4,0,0,0,3,0,1,3,0,0,0,0],"split_type":[0,0,0,0,0,0,0,0,0,0,0,0,0],"sum_hessian":[1.5272728E2,6.0830578E1,9.18967E1,3.818182E1,2.264876E1,1.2669421E1,9.979339E0,9.198347E0,3.4710743E0,1.0413224E0,8.157024E0,1.0413224E0,2.429752E0],"tree_param":{"num_deleted":"0","num_feature":"6","num_nodes":"13","size_leaf_vector":"0"}},{"base_weights":[-6.5050498E-3,-1.5554246E-1,8.8276565E-1,4.969742E0,-4.4300202E-1,2.865506E0,-1.3571832E-1,2.8546712E-1,-1.5342078E-1],"categories":[],"categories_nodes":[],"categories_segments":[],"categories_sizes":[],"default_left":[0,0,0,0,0,0,0,0,0],"id":11,"left_children":[1,-1,3,5,7,-1,-1,-1,-1],"loss_changes":[7.04466E1,0E0,3.0854163E2,3.5039084E2,4.646283E0,0E0,0E0,0E0,0E0],"parents":[2147483647,0,0,2,2,3,3,4,4],"right_children":[2,-1,4,6,8,-1,-1,-1,-1],"split_conditions":[6E1,-1.5554246E-1,2.5E1,7.489465E1,2.6E1,2.865506E0,-1.3571832E-1,2.8546712E-1,-1.5342078E-1],"split_indices":[0,0,2,4,2,0,0,0,0],"split_type":[0,0,0,0,0,0,0,0,0],"sum_hessian":[1.5272728E2,9.719009E1,5.553719E1,1.2929752E1,4.2607437E1,6.5950413E0,6.3347106E0,1.3884298E0,4.121901E1],"tree_param":{"num_deleted":"0","num_feature":"6","num_nodes":"9","size_leaf_vector":"0"}},{"base_weights":[-6.5050498E-3,1.8719033E0,-1.5584987E-1,7.2769227E0,-4.197615E-1,2.678237E0,-9.9697895E-2,2.1376519E-1,-1.5037382E-1],"categories":[],"categories_nodes":[],"categories_segments":[],"categories_sizes":[],"default_left":[0,0,0,0,0,0,0,0,0],"id":12,"left_children":[1,3,-1,5,7,-1,-1,-1,-1],"loss_changes":[1.4910608E2,4.142145E2,0E0,1.27781494E2,2.5951834E0,0E0,0E0,0E0,0E0],"parents":[2147483647,0,0,1,1,3,3,4,4],"right_children":[2,4,-1,6,8,-1,-1,-1,-1],"split_conditions":[5.520522E1,3.9E1,-1.5584987E-1,4.1E1,4.2E1,2.678237E0,-9.9697895E-2,2.1376519E-1,-1.5037382E-1],"split_indices":[4,1,0,0,1,0,0,0,0],"split_type":[0,0,0,0,0,0,0,0,0],"sum_hessian":[1.5272728E2,3.2194214E1,1.2053306E2,8.938017E0,2.3256199E1,7.2024794E0,1.7355372E0,1.0413224E0,2.2214876E1],"tree_param":{"num_deleted":"0","num_feature":"6","num_nodes":"9","size_leaf_vector":"0"}},{"base_weights":[-1.3010076E-2,-1.9918174E-1,5.287962E0,1.4356496E0,-2.901295E-1,-9.781592E-2,2.3841743E0,3.2892737E-1,-5.009901E-1,-1.48622E-1,1.0475144E0,-1.3354634E-1,-1.5564814E-1,2.3476832E0,-1.4199203E-1,2.1376519E-1,-1.2817976E-1,1.5584708E0,-9.005459E-2],"categories":[],"categories_nodes":[],"categories_segments":[],"categories_sizes":[],"default_left":[0,0,0,0,0,0,0,0,0,0,0,0,0,0,0,0,0,0,0],"id":13,"left_children":[1,3,5,-1,7,-1,-1,9,11,-1,13,15,-1,17,-1,-1,-1,-1,-1],"loss_changes":[1.527653E2,6.915234E1,8.100073E1,0E0,1.9449944E1,0E0,0E0,2.311169E1,6.5559196E-1,0E0,4.2038517E1,1.9115815E0,0E0,8.69501E1,0E0,0E0,0E0,0E0,0E0],"parents":[2147483647,0,0,1,1,2,2,4,4,7,7,8,8,10,10,11,11,13,13],"right_children":[2,4,6,-1,8,-1,-1,10,12,-1,14,16,-1,18,-1,-1,-1,-1,-1],"split_conditions":[7.9944654E0,4.6035633E0,2.3996862E1,1.4356496E0,6.1570724E1,-9.781592E-2,2.3841743E0,2.3996862E1,6.3658615E1,-1.48622E-1,2.6E1,4.4E1,-1.5564814E-1,6E1,-1.4199203E-1,2.1376519E-1,-1.2817976E-1,1.5584708E0,-9.005459E-2],"split_indices":[5,5,3,0,4,0,0,3,4,0,2,1,0,1,0,0,0,0,0],"split_type":[0,0,0,0,0,0,0,0,0,0,0,0,0,0,0,0,0,0,0],"sum_hessian":[1.5272728E2,1.484752E2,4.252066E0,1.7355372E0,1.4673967E2,1.6487603E0,2.6033058E0,3.7140495E1,1.09599174E2,1.7442148E1,1.9698347E1,5.4669423E0,1.0413223E2,1.0326447E1,9.371901E0,1.0413224E0,4.42562E0,4.512397E0,5.8140497E0],"tree_param":{"num_deleted":"0","num_feature":"6","num_nodes":"19","size_leaf_vector":"0"}},{"base_weights":[1.301003E-2,-1.5550335E-1,8.7774575E-1,2.4156609E0,-1.5220217E-1,-1.4858173E-1,7.1750193E0,-1.1353212E-1,2.8933809E0],"categories":[],"categories_nodes":[],"categories_segments":[],"categories_sizes":[],"default_left":[0,0,0,0,0,0,0,0,0],"id":14,"left_children":[1,-1,3,5,-1,-1,7,-1,-1],"loss_changes":[7.1089775E1,0E0,1.2664885E2,3.9250095E2,0E0,0E0,2.036012E2,0E0,0E0],"parents":[2147483647,0,0,2,2,3,3,6,6],"right_children":[2,-1,4,6,-1,-1,8,-1,-1],"split_conditions":[2.6982128E1,-1.5550335E-1,2.6E1,7.114783E1,-1.5220217E-1,-1.4858173E-1,3.1E1,-1.1353212E-1,2.8933809E0],"split_indices":[3,0,2,4,0,0,1,0,0],"split_type":[0,0,0,0,0,0,0,0,0],"sum_hessian":[1.5272728E2,9.484711E1,5.7880165E1,2.707438E1,3.0805786E1,1.7355371E1,9.719008E0,2.6033058E0,7.1157026E0],"tree_param":{"num_deleted":"0","num_feature":"6","num_nodes":"9","size_leaf_vector":"0"}},{"base_weights":[-6.505029E-2,-1.5578286E-1,1.2761021E0,-1.5239641E-1,2.833528E0],"categories":[],"categories_nodes":[],"categories_segments":[],"categories_sizes":[],"default_left":[0,0,0,0,0],"id":15,"left_children":[1,-1,3,-1,-1],"loss_changes":[9.4311165E1,0E0,5.758423E2,0E0,0E0],"parents":[2147483647,0,0,2,2],"right_children":[2,-1,4,-1,-1],"split_conditions":[8.999397E1,-1.5578286E-1,7.1E1,-1.5239641E-1,2.833528E0],"split_indices":[4,0,0,0,0],"split_type":[0,0,0,0,0],"sum_hessian":[1.5272728E2,1.14545456E2,3.818182E1,3.2107437E1,6.0743804E0],"tree_param":{"num_deleted":"0","num_feature":"6","num_nodes":"5","size_leaf_vector":"0"}},{"base_weights":[4.5535162E-2,2.8933809E0,-4.8613304E-1,2.7664667E-1,-1.560261E-1,6.546559E-1,-1.3032441E-1],"categories":[],"categories_nodes":[],"categories_segments":[],"categories_sizes":[],"default_left":[0,0,0,0,0,0,0],"id":16,"left_children":[1,-1,3,5,-1,-1,-1],"loss_changes":[7.892386E2,0E0,3.9410286E0,1.0298286E1,0E0,0E0,0E0],"parents":[2147483647,0,0,2,2,3,3],"right_children":[2,-1,4,6,-1,-1,-1],"split_conditions":[1.5E1,2.8933809E0,1.6E1,4.5E1,-1.560261E-1,6.546559E-1,-1.3032441E-1],"split_indices":[2,0,2,1,0,0,0],"split_type":[0,0,0,0,0,0,0],"sum_hessian":[1.5272728E2,7.1157026E0,1.4561157E2,5.9008265E0,1.3971074E2,1.0413224E0,4.859504E0],"tree_param":{"num_deleted":"0","num_feature":"6","num_nodes":"7","size_leaf_vector":"0"}},{"base_weights":[-2.3263787E-8,-1.9383262E-1,6.2633452E0,-1.5578286E-1,8.697674E-1,6.6801615E-2,2.3841743E0,-1.5061772E-1,3.4525547E0,2.671676E0,-1.379849E-1],"categories":[],"categories_nodes":[],"categories_segments":[],"categories_sizes":[],"default_left":[0,0,0,0,0,0,0,0,0,0,0],"id":17,"left_children":[1,3,5,-1,7,-1,-1,-1,9,-1,-1],"loss_changes":[1.8784515E2,5.2401524E1,4.5475098E1,0E0,1.2764646E2,0E0,0E0,0E0,2.6981396E2,0E0,0E0],"parents":[2147483647,0,0,1,1,2,2,4,4,8,8],"right_children":[2,4,6,-1,8,-1,-1,-1,10,-1,-1],"split_conditions":[3.6731266E1,9.01222E1,6.524478E0,-1.5578286E-1,3.1E1,6.6801615E-2,2.3841743E0,-1.5061772E-1,7.1E1,2.671676E0,-1.379849E-1],"split_indices":[3,4,5,0,1,0,0,0,1,0,0],"split_type":[0,0,0,0,0,0,0,0,0,0,0],"sum_hessian":[1.5272728E2,1.4908264E2,3.644628E0,1.14545456E2,3.453719E1,1.0413224E0,2.6033058E0,2.3082645E1,1.1454546E1,4.252066E0,7.2024794E0],"tree_param":{"num_deleted":"0","num_feature":"6","num_nodes":"11","size_leaf_vector":"0"}},{"base_weights":[1.301003E-2,3.3604887E0,-1.7237882E-1,-1.2510532E-1,2.0888126E0,8.03622E-1,-4.5785186E-1,1.8458323E0,-1.4716685E-1,-1.1000002E-1,-1.5552098E-1,-1.3818546E-1,3.347826E0,4.8058254E-1,-3.1717956E-1,7.197265E-1,2.4082909E0,-1.4469896E-1,1.256664E-1,-1.2770899E-1,6.0841686E-1,1.7640156E-1,-1.0888326E-1],"categories":[],"categories_nodes":[],"categories_segments":[],"categories_sizes":[],"default_left":[0,0,0,0,0,0,0,0,0,0,0,0,0,0,0,0,0,0,0,0,0,0,0],"id":18,"left_children":[1,3,5,-1,-1,7,9,11,-1,13,-1,-1,15,-1,17,19,-1,-1,21,-1,-1,-1,-1],"loss_changes":[9.5980156E1,1.1333725E2,4.1217136E1,0E0,0E0,4.614622E1,2.3456268E0,6.66332E1,0E0,6.956818E0,0E0,0E0,1.3566086E2,0E0,1.3078557E0,1.3545626E1,0E0,0E0,1.4390804E0,0E0,0E0,0E0,0E0],"parents":[2147483647,0,0,1,1,2,2,5,5,6,6,7,7,9,9,12,12,14,14,15,15,18,18],"right_children":[2,4,6,-1,-1,8,10,12,-1,14,-1,-1,16,-1,18,20,-1,-1,22,-1,-1,-1,-1],"split_conditions":[5.3952756E0,5.4E1,6.0115936E1,-1.2510532E-1,2.0888126E0,2.6E1,6.766324E1,2.4968817E1,-1.4716685E-1,5.765309E0,-1.5552098E-1,-1.3818546E-1,6.1E1,4.8058254E-1,7.1E1,5.5E1,2.4082909E0,-1.4469896E-1,1.9E1,-1.2770899E-1,6.0841686E-1,1.7640156E-1,-1.0888326E-1],"split_indices":[5,1,4,0,0,2,4,4,0,5,0,0,1,0,1,1,0,0,2,0,0,0,0],"split_type":[0,0,0,0,0,0,0,0,0,0,0,0,0,0,0,0,0,0,0,0,0,0,0],"sum_hessian":[1.5272728E2,7.1157026E0,1.4561157E2,3.9049587E0,3.210744E0,3.254132E1,1.1307025E2,1.7789257E1,1.4752067E1,1.7181818E1,9.588843E1,7.289256E0,1.05E1,1.1280992E0,1.6053719E1,7.46281E0,3.0371902E0,1.1628099E1,4.42562E0,4.338843E0,3.123967E0,2.1694214E0,2.2561984E0],"tree_param":{"num_deleted":"0","num_feature":"6","num_nodes":"23","size_leaf_vector":"0"}},{"base_weights":[1.301003E-2,1.3953488E0,-1.5573637E-1,4.547486E0,-1.5147541E-1,-1.3492991E-1,7.5680714E0,2.8933809E0,-1.0616623E-1],"categories":[],"categories_nodes":[],"categories_segments":[],"categories_sizes":[],"default_left":[0,0,0,0,0,0,0,0,0],"id":19,"left_children":[1,3,-1,5,-1,-1,7,-1,-1],"loss_changes":[1.1380394E2,2.5986188E2,0E0,2.4903464E2,0E0,0E0,1.7117786E2,0E0,0E0],"parents":[2147483647,0,0,1,1,3,3,6,6],"right_children":[2,4,-1,6,-1,-1,8,-1,-1],"split_conditions":[3.1E1,2.4971786E1,-1.5573637E-1,3.5E1,-1.5147541E-1,-1.3492991E-1,4.1E1,2.8933809E0,-1.0616623E-1],"split_indices":[1,3,0,2,0,0,0,0,0],"split_type":[0,0,0,0,0,0,0,0,0],"sum_hessian":[1.5272728E2,4.2E1,1.1072727E2,1.5272727E1,2.6727272E1,6.0743804E0,9.198347E0,7.1157026E0,2.0826447E0],"tree_param":{"num_deleted":"0","num_feature":"6","num_nodes":"9","size_leaf_vector":"0"}},{"base_weights":[-2.6020128E-2,-1.5554246E-1,8.297032E-1,-1.509097E-1,1.8434104E0,4.7355933E0,-1.9626558E-1,6.698688E0,-1.2330962E-1,1.2866971E0,-1.4806683E-1,2.3428712E0,-8.8868946E-2,7.264926E-1,-9.134949E-2],"categories":[],"categories_nodes":[],"categories_segments":[],"categories_sizes":[],"default_left":[0,0,0,0,0,0,0,0,0,0,0,0,0,0,0],"id":20,"left_children":[1,-1,3,-1,5,7,9,11,-1,13,-1,-1,-1,-1,-1],"loss_changes":[6.5211624E1,0E0,7.7309235E1,0E0,1.9162686E2,1.3822968E2,9.416038E0,7.8188446E1,0E0,7.244664E0,0E0,0E0,0E0,0E0,0E0],"parents":[2147483647,0,0,2,2,4,4,5,5,6,6,7,7,9,9],"right_children":[2,-1,4,-1,6,8,10,12,-1,14,-1,-1,-1,-1,-1],"split_conditions":[6E1,-1.5554246E-1,8.0034996E1,-1.509097E-1,4.5E1,1E2,4.6E1,8.516907E1,-1.2330962E-1,8.356812E1,-1.4806683E-1,2.3428712E0,-8.8868946E-2,7.264926E-1,-9.134949E-2],"split_indices":[0,0,4,0,2,0,2,4,0,4,0,0,0,0,0],"split_type":[0,0,0,0,0,0,0,0,0,0,0,0,0,0,0],"sum_hessian":[1.5272728E2,9.719009E1,5.553719E1,2.4210745E1,3.1326447E1,1.2409091E1,1.8917355E1,8.764462E0,3.644628E0,2.6033058E0,1.6314049E1,7.46281E0,1.3016529E0,1.214876E0,1.3884298E0],"tree_param":{"num_deleted":"0","num_feature":"6","num_nodes":"15","size_leaf_vector":"0"}},{"base_weights":[-3.9030183E-2,1.2467906E0,-5.103486E-1,-1.5166403E-1,4.7874627E0,2.7545905E-2,-1.5573637E-1,2.7470076E0,-1.354618E-1],"categories":[],"categories_nodes":[],"categories_segments":[],"categories_sizes":[],"default_left":[0,0,0,0,0,0,0,0,0],"id":21,"left_children":[1,3,5,-1,7,-1,-1,-1,-1],"loss_changes":[9.37998E1,2.6005887E2,6.45668E-1,0E0,3.2100592E2,0E0,0E0,0E0,0E0],"parents":[2147483647,0,0,1,1,2,2,4,4],"right_children":[2,4,6,-1,8,-1,-1,-1,-1],"split_conditions":[3E1,4.5E1,3.1E1,-1.5166403E-1,8.999397E1,2.7545905E-2,-1.5573637E-1,2.7470076E0,-1.354618E-1],"split_indices":[1,2,1,0,4,0,0,0,0],"split_type":[0,0,0,0,0,0,0,0,0],"sum_hessian":[1.5272728E2,4.0524796E1,1.1220248E2,2.7681818E1,1.2842976E1,1.4752066E0,1.1072727E2,6.5950413E0,6.247934E0],"tree_param":{"num_deleted":"0","num_feature":"6","num_nodes":"9","size_leaf_vector":"0"}},{"base_weights":[-1.6717082E-2,-1.5242213E-1,8.485972E-1,-1.2212346E-1,2.9045567E-1],"categories":[],"categories_nodes":[],"categories_segments":[],"categories_sizes":[],"default_left":[0,0,0,0,0],"id":22,"left_children":[1,-1,3,-1,-1],"loss_changes":[5.6179115E1,0E0,7.581299E0,0E0,0E0],"parents":[2147483647,0,0,2,2],"right_children":[2,-1,4,-1,-1],"split_conditions":[1.2E2,-1.5242213E-1,8.409985E1,-1.2212346E-1,2.9045567E-1],"split_indices":[1,0,4,0,0],"split_type":[0,0,0,0,0],"sum_hessian":[1.3011678E2,8.325463E1,4.6862137E1,3.8659277E0,4.299621E1],"tree_param":{"num_deleted":"0","num_feature":"6","num_nodes":"5","size_leaf_vector":"0"}},{"base_weights":[-3.2810926E-2,-1.5209314E-1,5.3663564E-1,-1.457376E-1,2.9411852E-1],"categories":[],"categories_nodes":[],"categories_segments":[],"categories_sizes":[],"default_left":[0,0,0,0,0],"id":23,"left_children":[1,-1,3,-1,-1],"loss_changes":[3.505545E1,0E0,2.7252487E1,0E0,0E0],"parents":[2147483647,0,0,2,2],"right_children":[2,-1,4,-1,-1],"split_conditions":[7E1,-1.5209314E-1,6.9E1,-1.457376E-1,2.9411852E-1],"split_indices":[1,0,0,0,0],"split_type":[0,0,0,0,0],"sum_hessian":[1.2782148E2,6.980556E1,5.801592E1,1.7530558E1,4.0485363E1],"tree_param":{"num_deleted":"0","num_feature":"6","num_nodes":"5","size_leaf_vector":"0"}},{"base_weights":[3.9284945E-2,4.3767118E-1,-1.512645E-1,-1.4786468E-1,8.6828375E-1,-1.2966652E-1,1.0270761E0,-1.1207778E-1,1.11573E0,1.1752464E0,-1.1144352E-1,-8.808524E-2,3.6845392E-1],"categories":[],"categories_nodes":[],"categories_segments":[],"categories_sizes":[],"default_left":[0,0,0,0,0,0,0,0,0,0,0,0,0],"id":24,"left_children":[1,3,-1,-1,5,-1,7,-1,9,11,-1,-1,-1],"loss_changes":[2.782533E1,3.0121115E1,0E0,0E0,1.09803505E1,0E0,6.0997734E0,0E0,4.2685165E0,3.615818E0,0E0,0E0,0E0],"parents":[2147483647,0,0,1,1,4,4,6,6,8,8,9,9],"right_children":[2,4,-1,-1,6,-1,8,-1,10,12,-1,-1,-1],"split_conditions":[7.114783E1,6.0132637E1,-1.512645E-1,-1.4786468E-1,2.5191925E1,-1.2966652E-1,6.497367E0,-1.1207778E-1,7.7863665E0,2E1,-1.1144352E-1,-8.808524E-2,3.6845392E-1],"split_indices":[4,4,0,0,3,0,5,0,5,0,0,0,0],"split_type":[0,0,0,0,0,0,0,0,0,0,0,0,0],"sum_hessian":[1.2649067E2,7.3101715E1,5.338895E1,2.3080393E1,5.0021324E1,5.2556605E0,4.4765663E1,2.4734159E0,4.2292248E1,4.0866577E1,1.4256687E0,1.2633235E0,3.9603256E1],"tree_param":{"num_deleted":"0","num_feature":"6","num_nodes":"13","size_leaf_vector":"0"}},{"base_weights":[-3.3612195E-2,9.2781633E-1,-1.5245426E-1,-9.037906E-2,2.9314244E-1],"categories":[],"categories_nodes":[],"categories_segments":[],"categories_sizes":[],"default_left":[0,0,0,0,0],"id":25,"left_children":[1,3,-1,-1,-1],"loss_changes":[5.9239014E1,2.8963966E0,0E0,0E0,0E0],"parents":[2147483647,0,0,1,1],"right_children":[2,4,-1,-1,-1],"split_conditions":[2.0247683E1,2.6E1,-1.5245426E-1,-9.037906E-2,2.9314244E-1],"split_indices":[4,2,0,0,0],"split_type":[0,0,0,0,0],"sum_hessian":[1.2780162E2,4.1920273E1,8.588135E1,1.4203482E0,4.0499924E1],"tree_param":{"num_deleted":"0","num_feature":"6","num_nodes":"5","size_leaf_vector":"0"}},{"base_weights":[1.2688259E-2,-4.936862E-1,7.202379E-1,-1.5208991E-1,-1.10845365E-1,1.0396898E0,-1.409413E-1,7.169827E-2,-9.796245E-2,-1.1942953E-1,1.1786714E0,1.215355E-1,3.5864598E-1],"categories":[],"categories_nodes":[],"categories_segments":[],"categories_sizes":[],"default_left":[0,0,0,0,0,0,0,0,0,0,0,0,0],"id":26,"left_children":[1,3,5,-1,7,9,-1,-1,-1,-1,11,-1,-1],"loss_changes":[4.5357803E1,3.1903648E-1,2.0561409E1,0E0,3.61324E-1,8.849567E0,0E0,0E0,0E0,0E0,1.6399384E-2,0E0,0E0],"parents":[2147483647,0,0,1,1,2,2,4,4,5,5,10,10],"right_children":[2,4,6,-1,8,10,-1,-1,-1,-1,12,-1,-1],"split_conditions":[9.079094E1,9.0203964E1,3.6E1,-1.5208991E-1,2.5E1,1.6E1,-1.409413E-1,7.169827E-2,-9.796245E-2,-1.1942953E-1,2.5517914E1,1.215355E-1,3.5864598E-1],"split_indices":[4,4,2,0,0,2,0,0,0,0,3,0,0],"split_type":[0,0,0,0,0,0,0,0,0,0,0,0,0],"sum_hessian":[1.24604546E2,7.280337E1,5.1801174E1,7.004925E1,2.7541223E0,4.093818E1,1.0862996E1,1.0092297E0,1.7448926E0,3.444089E0,3.749409E1,1.3315377E0,3.616255E1],"tree_param":{"num_deleted":"0","num_feature":"6","num_nodes":"13","size_leaf_vector":"0"}},{"base_weights":[-3.5740636E-2,-1.5192637E-1,4.7791064E-1,9.9615574E-1,-4.6616745E-1,3.1422678E-1,-1.1293351E-1,4.4731083E-4,-1.4703195E-1],"categories":[],"categories_nodes":[],"categories_segments":[],"categories_sizes":[],"default_left":[0,0,0,0,0,0,0,0,0],"id":27,"left_children":[1,-1,3,5,7,-1,-1,-1,-1],"loss_changes":[3.1074057E1,0E0,3.0551735E1,3.2104683E0,2.523451E-1,0E0,0E0,0E0,0E0],"parents":[2147483647,0,0,2,2,3,3,4,4],"right_children":[2,-1,4,6,8,-1,-1,-1,-1],"split_conditions":[8E1,-1.5192637E-1,6.936385E1,4.1E1,7.114783E1,3.1422678E-1,-1.1293351E-1,4.4731083E-4,-1.4703195E-1],"split_indices":[0,0,4,1,4,0,0,0,0],"split_type":[0,0,0,0,0,0,0,0,0],"sum_hessian":[1.2652858E2,6.603342E1,6.0495163E1,3.9020157E1,2.1475006E1,3.78436E1,1.1765553E0,1.0914176E0,2.0383587E1],"tree_param":{"num_deleted":"0","num_feature":"6","num_nodes":"9","size_leaf_vector":"0"}},{"base_weights":[2.9306939E-2,-1.52283E-1,9.0938866E-1,1.1778677E0,-1.3620915E-1,-1.3132563E-1,3.8301316E-1],"categories":[],"categories_nodes":[],"categories_segments":[],"categories_sizes":[],"default_left":[0,0,0,0,0,0,0],"id":28,"left_children":[1,-1,3,5,-1,-1,-1],"loss_changes":[6.0546677E1,0E0,1.8302475E1,7.079384E0,0E0,0E0,0E0],"parents":[2147483647,0,0,2,2,3,3],"right_children":[2,-1,4,6,-1,-1,-1],"split_conditions":[1E2,-1.52283E-1,2.6E1,6.859232E1,-1.3620915E-1,-1.3132563E-1,3.8301316E-1],"split_indices":[0,0,2,4,0,0,0],"split_type":[0,0,0,0,0,0,0],"sum_hessian":[1.26155876E2,7.861684E1,4.7539036E1,3.9831642E1,7.7073936E0,2.0987122E0,3.7732933E1],"tree_param":{"num_deleted":"0","num_feature":"6","num_nodes":"7","size_leaf_vector":"0"}},{"base_weights":[-3.0253021E-2,-1.5242213E-1,8.452495E-1,2.9253733E-1,-1.2305391E-1],"categories":[],"categories_nodes":[],"categories_segments":[],"categories_sizes":[],"default_left":[0,0,0,0,0],"id":29,"left_children":[1,-1,3,-1,-1],"loss_changes":[5.4508484E1,0E0,7.9031487E0,0E0,0E0],"parents":[2147483647,0,0,2,2],"right_children":[2,-1,4,-1,-1],"split_conditions":[1.2E2,-1.5242213E-1,8.414668E1,2.9253733E-1,-1.2305391E-1],"split_indices":[1,0,4,0,0],"split_type":[0,0,0,0,0],"sum_hessian":[1.2827261E2,8.325463E1,4.5017986E1,4.099981E1,4.0181794E0],"tree_param":{"num_deleted":"0","num_feature":"6","num_nodes":"5","size_leaf_vector":"0"}},{"base_weights":[6.919599E-2,-1.515878E-1,5.496667E-1,-1.474627E-1,7.682309E-1,-1.390151E-1,1.0065299E0,1.1818492E0,-1.3146655E-1,1.2655902E0,-1.2650406E-1,-1.0500369E-1,4.061003E-1],"categories":[],"categories_nodes":[],"categories_segments":[],"categories_sizes":[],"default_left":[0,0,0,0,0,0,0,0,0,0,0,0,0],"id":30,"left_children":[1,-1,3,-1,5,-1,7,9,-1,11,-1,-1,-1],"loss_changes":[3.5662754E1,0E0,1.6373312E1,0E0,1.76311E1,0E0,1.3009853E1,6.475834E0,0E0,6.493759E0,0E0,0E0,0E0],"parents":[2147483647,0,0,2,2,4,4,6,6,7,7,9,9],"right_children":[2,-1,4,-1,6,-1,8,10,-1,12,-1,-1,-1],"split_conditions":[6E1,-1.515878E-1,3.5E1,-1.474627E-1,3.5E1,-1.390151E-1,6.1E1,7.502834E0,-1.3146655E-1,2.3089508E1,-1.2650406E-1,-1.0500369E-1,4.061003E-1],"split_indices":[0,0,1,0,2,0,1,5,0,3,0,0,0],"split_type":[0,0,0,0,0,0,0,0,0,0,0,0,0],"sum_hessian":[1.2719496E2,5.7906147E1,6.928881E1,1.1804564E1,5.748425E1,9.166085E0,4.831816E1,4.325159E1,5.066571E0,4.1305256E1,1.9463347E0,1.981665E0,3.932359E1],"tree_param":{"num_deleted":"0","num_feature":"6","num_nodes":"13","size_leaf_vector":"0"}},{"base_weights":[-5.738225E-3,9.09406E-1,-1.5428816E-1,3.100487E-1,-1.2187635E-1],"categories":[],"categories_nodes":[],"categories_segments":[],"categories_sizes":[],"default_left":[0,0,0,0,0],"id":31,"left_children":[1,3,-1,-1,-1],"loss_changes":[6.211657E1,8.2038E0,0E0,0E0,0E0],"parents":[2147483647,0,0,1,1],"right_children":[2,4,-1,-1,-1],"split_conditions":[3.0400467E1,2.6E1,-1.5428816E-1,3.100487E-1,-1.2187635E-1],"split_indices":[4,2,0,0,0],"split_type":[0,0,0,0,0],"sum_hessian":[1.3146376E2,4.6678223E1,8.478553E1,4.285109E1,3.827135E0],"tree_param":{"num_deleted":"0","num_feature":"6","num_nodes":"5","size_leaf_vector":"0"}},{"base_weights":[8.223571E-3,3.781432E-1,-1.5128757E-1,-1.4795221E-1,7.7388537E-1,9.347743E-1,-1.3171062E-1,-1.5248752E-1,1.0491651E0,1.0992653E0,-8.9017525E-2,3.742602E-1,2.682494E-1],"categories":[],"categories_nodes":[],"categories_segments":[],"categories_sizes":[],"default_left":[0,0,0,0,0,0,0,0,0,0,0,0,0],"id":32,"left_children":[1,3,-1,-1,5,7,-1,-1,9,11,-1,-1,-1],"loss_changes":[2.4785488E1,2.6558872E1,0E0,0E0,1.0673971E1,8.251228E0,0E0,0E0,3.2692642E0,1.7063522E-1,0E0,0E0,0E0],"parents":[2147483647,0,0,1,1,4,4,5,5,8,8,9,9],"right_children":[2,4,-1,-1,6,8,-1,-1,10,12,-1,-1,-1],"split_conditions":[6.9948074E1,6.0194614E1,-1.5128757E-1,-1.4795221E-1,4.1E1,5.8211946E0,-1.3171062E-1,-1.5248752E-1,2.9930613E1,2.5487968E1,-8.9017525E-2,3.742602E-1,2.682494E-1],"split_indices":[4,4,0,0,0,5,0,0,3,3,0,0,0],"split_type":[0,0,0,0,0,0,0,0,0,0,0,0,0],"sum_hessian":[1.2872655E2,7.491624E1,5.3810303E1,2.3321783E1,5.1594456E1,4.5754616E1,5.8398414E0,3.1076345E0,4.264698E1,4.1293106E1,1.3538764E0,2.1017147E1,2.0275957E1],"tree_param":{"num_deleted":"0","num_feature":"6","num_nodes":"13","size_leaf_vector":"0"}},{"base_weights":[-2.5606511E-2,-1.515878E-1,3.8366082E-1,8.838848E-1,-1.4823239E-1,3.1647804E-1,-1.2835537E-1],"categories":[],"categories_nodes":[],"categories_segments":[],"categories_sizes":[],"default_left":[0,0,0,0,0,0,0],"id":33,"left_children":[1,-1,3,5,-1,-1,-1],"loss_changes":[2.5128504E1,0E0,3.0779047E1,1.0407925E1,0E0,0E0,0E0],"parents":[2147483647,0,0,2,2,3,3],"right_children":[2,-1,4,6,-1,-1,-1],"split_conditions":[6E1,-1.515878E-1,2.6E1,7.489465E1,-1.4823239E-1,3.1647804E-1,-1.2835537E-1],"split_indices":[0,0,2,4,0,0,0],"split_type":[0,0,0,0,0,0,0],"sum_hessian":[1.2601029E2,5.7906147E1,6.810414E1,4.3377277E1,2.4726864E1,3.85468E1,4.8304787E0],"tree_param":{"num_deleted":"0","num_feature":"6","num_nodes":"7","size_leaf_vector":"0"}},{"base_weights":[-1.6467115E-2,6.030202E-1,-1.5206665E-1,9.5824313E-1,-1.4399578E-1,-1.7524335E-1,1.085421E0,3.4340635E-1,-9.13947E-2],"categories":[],"categories_nodes":[],"categories_segments":[],"categories_sizes":[],"default_left":[0,0,0,0,0,0,0,0,0],"id":34,"left_children":[1,3,-1,5,-1,-1,7,-1,-1],"loss_changes":[3.950686E1,2.2569315E1,0E0,9.188427E0,0E0,0E0,3.696659E0,0E0,0E0],"parents":[2147483647,0,0,1,1,3,3,6,6],"right_children":[2,4,-1,6,-1,-1,8,-1,-1],"split_conditions":[5.5282204E1,4.1E1,-1.5206665E-1,2.5E1,-1.4399578E-1,-1.7524335E-1,4.1E1,3.4340635E-1,-9.13947E-2],"split_indices":[4,1,0,2,0,0,0,0,0],"split_type":[0,0,0,0,0,0,0,0,0],"sum_hessian":[1.2803194E2,5.6470436E1,7.156151E1,4.2609756E1,1.3860681E1,2.9720614E0,3.9637695E1,3.8186123E1,1.4515703E0],"tree_param":{"num_deleted":"0","num_feature":"6","num_nodes":"9","size_leaf_vector":"0"}},{"base_weights":[8.950666E-2,6.8328863E-1,-1.5159814E-1,1.0546865E0,-1.446993E-1,1.3950257E0,-1.3886528E-1,1.5806832E0,-1.2340569E-1,-1.192577E-1,1.7363292E0,6.863286E-1,4.2202887E-1],"categories":[],"categories_nodes":[],"categories_segments":[],"categories_sizes":[],"default_left":[0,0,0,0,0,0,0,0,0,0,0,0,0],"id":35,"left_children":[1,3,-1,5,-1,7,-1,9,-1,-1,11,-1,-1],"loss_changes":[4.3003998E1,2.6858639E1,0E0,2.464869E1,0E0,1.3464386E1,0E0,1.1421997E1,0E0,0E0,2.687767E0,0E0,0E0],"parents":[2147483647,0,0,1,1,3,3,5,5,7,7,10,10],"right_children":[2,4,-1,6,-1,8,-1,10,-1,-1,12,-1,-1],"split_conditions":[6.506602E1,6.1E1,-1.5159814E-1,2.6E1,-1.446993E-1,4.1E1,-1.3886528E-1,4.0009335E1,-1.2340569E-1,-1.192577E-1,6.0316076E0,6.863286E-1,4.2202887E-1],"split_indices":[4,1,0,2,0,0,0,4,0,0,5,0,0],"split_type":[0,0,0,0,0,0,0,0,0,0,0,0,0],"sum_hessian":[1.1977723E2,5.986719E1,5.9910038E1,4.547333E1,1.439386E1,3.720931E1,8.264024E0,3.3854702E1,3.3546052E0,2.3560498E0,3.1498653E1,9.560398E0,2.1938253E1],"tree_param":{"num_deleted":"0","num_feature":"6","num_nodes":"13","size_leaf_vector":"0"}},{"base_weights":[-3.105217E-2,-1.514945E-1,3.4299234E-1,6.178245E-1,-1.4582299E-1,-1.4266089E-1,9.23338E-1,-9.2462465E-2,2.9241163E-1],"categories":[],"categories_nodes":[],"categories_segments":[],"categories_sizes":[],"default_left":[0,0,0,0,0,0,0,0,0],"id":36,"left_children":[1,-1,3,5,-1,-1,7,-1,-1],"loss_changes":[2.3119432E1,0E0,1.6920044E1,1.8884867E1,0E0,0E0,3.0523186E0,0E0,0E0],"parents":[2147483647,0,0,2,2,3,3,6,6],"right_children":[2,-1,4,6,-1,-1,8,-1,-1],"split_conditions":[2.7014704E1,-1.514945E-1,2.6E1,7.089001E1,-1.4582299E-1,-1.4266089E-1,3.1E1,-9.2462465E-2,2.9241163E-1],"split_indices":[3,0,2,4,0,0,1,0,0],"split_type":[0,0,0,0,0,0,0,0,0],"sum_hessian":[1.2844174E2,5.650172E1,7.194001E1,5.4220867E1,1.7719147E1,1.1720269E1,4.2500595E1,1.501507E0,4.099909E1],"tree_param":{"num_deleted":"0","num_feature":"6","num_nodes":"9","size_leaf_vector":"0"}},{"base_weights":[-7.207253E-2,-1.5206993E-1,4.905703E-1,-1.461546E-1,3.0223328E-1],"categories":[],"categories_nodes":[],"categories_segments":[],"categories_sizes":[],"default_left":[0,0,0,0,0],"id":37,"left_children":[1,-1,3,-1,-1],"loss_changes":[3.0512291E1,0E0,2.7999842E1,0E0,0E0],"parents":[2147483647,0,0,2,2],"right_children":[2,-1,4,-1,-1],"split_conditions":[9.001506E1,-1.5206993E-1,7.1E1,-1.461546E-1,3.0223328E-1],"split_indices":[4,0,0,0,0],"split_type":[0,0,0,0,0],"sum_hessian":[1.22700485E2,6.926754E1,5.343295E1,1.8498129E1,3.493482E1],"tree_param":{"num_deleted":"0","num_feature":"6","num_nodes":"5","size_leaf_vector":"0"}},{"base_weights":[4.6979976E-3,9.3094975E-1,-1.5238109E-1,1.0614147E0,-1.2356435E-1,2.9212052E-1,1.4922601E0,1.9989158E-1,5.3538066E-1],"categories":[],"categories_nodes":[],"categories_segments":[],"categories_sizes":[],"default_left":[0,0,0,0,0,0,0,0,0],"id":38,"left_children":[1,3,-1,5,-1,-1,7,-1,-1],"loss_changes":[6.2282528E1,8.623886E0,0E0,1.6645432E-1,0E0,0E0,1.0789585E-1,0E0,0E0],"parents":[2147483647,0,0,1,1,3,3,6,6],"right_children":[2,4,-1,6,-1,-1,8,-1,-1],"split_conditions":[1.6E1,3.1E1,-1.5238109E-1,1.4E1,-1.2356435E-1,2.9212052E-1,9.203273E1,1.9989158E-1,5.3538066E-1],"split_indices":[2,1,0,2,0,0,4,0,0],"split_type":[0,0,0,0,0,0,0,0,0],"sum_hessian":[1.2917247E2,4.5729805E1,8.3442665E1,4.18713E1,3.858507E0,3.7499893E1,4.371405E0,1.9999989E0,2.3714063E0],"tree_param":{"num_deleted":"0","num_feature":"6","num_nodes":"9","size_leaf_vector":"0"}},{"base_weights":[1.7367227E-2,-1.5208746E-1,6.7013466E-1,-1.4333639E-1,1.0367044E0,3.5735336E-1,-1.2248273E-1],"categories":[],"categories_nodes":[],"categories_segments":[],"categories_sizes":[],"default_left":[0,0,0,0,0,0,0],"id":39,"left_children":[1,-1,3,-1,5,-1,-1],"loss_changes":[4.357861E1,0E0,2.4356167E1,0E0,1.0150257E1,0E0,0E0],"parents":[2147483647,0,0,2,2,4,4],"right_children":[2,-1,4,-1,6,-1,-1],"split_conditions":[9.0076004E1,-1.5208746E-1,3.1E1,-1.4333639E-1,7.1E1,3.5735336E-1,-1.2248273E-1],"split_indices":[4,0,1,0,1,0,0],"split_type":[0,0,0,0,0,0,0],"sum_hessian":[1.25332504E2,6.962814E1,5.570436E1,1.3409323E1,4.2295036E1,3.836891E1,3.926125E0],"tree_param":{"num_deleted":"0","num_feature":"6","num_nodes":"7","size_leaf_vector":"0"}},{"base_weights":[9.4629034E-2,6.054107E-1,-4.7470915E-1,-1.4353123E-1,8.857072E-1,1.2756562E-1,-1.514182E-1,-1.3936216E-1,1.1557815E0,1.2948108E0,-1.204296E-1,1.4169647E0,-1.1334463E-1,-1.2705345E-1,4.527972E-1],"categories":[],"categories_nodes":[],"categories_segments":[],"categories_sizes":[],"default_left":[0,0,0,0,0,0,0,0,0,0,0,0,0,0,0],"id":40,"left_children":[1,3,5,-1,7,-1,-1,-1,9,11,-1,13,-1,-1,-1],"loss_changes":[3.608917E1,2.0271667E1,1.8024893E0,0E0,1.9594059E1,0E0,0E0,0E0,1.0010025E1,8.805931E0,0E0,7.087509E0,0E0,0E0,0E0],"parents":[2147483647,0,0,1,1,2,2,4,4,8,8,9,9,11,11],"right_children":[2,4,6,-1,8,-1,-1,-1,10,12,-1,14,-1,-1,-1],"split_conditions":[6.758619E1,5.5E1,5.323072E0,-1.4353123E-1,3.0400467E1,1.2756562E-1,-1.514182E-1,-1.3936216E-1,4.1E1,7.460175E0,-1.204296E-1,4.548202E0,-1.1334463E-1,-1.2705345E-1,4.527972E-1],"split_indices":[4,1,5,0,4,0,0,0,0,5,0,5,0,0,0],"split_type":[0,0,0,0,0,0,0,0,0,0,0,0,0,0,0],"sum_hessian":[1.2211159E2,6.433241E1,5.777917E1,1.30734005E1,5.125901E1,1.4401081E0,5.6339066E1,8.423806E0,4.2835205E1,3.9479E1,3.3562064E0,3.693448E1,2.5445194E0,1.5935615E0,3.534092E1],"tree_param":{"num_deleted":"0","num_feature":"6","num_nodes":"15","size_leaf_vector":"0"}},{"base_weights":[-2.6981838E-2,5.002793E-1,-1.5203181E-1,8.3958524E-1,-1.447529E-1,-1.19392596E-1,9.47937E-1,2.9734638E-1,-8.522043E-2],"categories":[],"categories_nodes":[],"categories_segments":[],"categories_sizes":[],"default_left":[0,0,0,0,0,0,0,0,0],"id":41,"left_children":[1,3,-1,5,-1,-1,7,-1,-1],"loss_changes":[3.296775E1,2.111813E1,0E0,6.6176376E0,0E0,0E0,2.5757027E0,0E0,0E0],"parents":[2147483647,0,0,1,1,3,3,6,6],"right_children":[2,4,-1,6,-1,-1,8,-1,-1],"split_conditions":[3.1E1,2.5009333E1,-1.5203181E-1,3.5E1,-1.447529E-1,-1.19392596E-1,4.1E1,2.9734638E-1,-8.522043E-2],"split_indices":[1,3,0,2,0,0,0,0,0],"split_type":[0,0,0,0,0,0,0,0,0],"sum_hessian":[1.2831795E2,6.1114315E1,6.7203636E1,4.5538094E1,1.5576222E1,3.4508262E0,4.2087265E1,4.084979E1,1.2374762E0],"tree_param":{"num_deleted":"0","num_feature":"6","num_nodes":"9","size_leaf_vector":"0"}},{"base_weights":[1.4373085E-2,-1.515878E-1,4.5673203E-1,-1.4423028E-1,7.141033E-1,9.6138084E-1,-1.3877968E-1,1.0654511E0,-1.1625849E-1,1.1454747E0,-1.11544944E-1,3.193463E-1,5.6664383E-1],"categories":[],"categories_nodes":[],"categories_segments":[],"categories_sizes":[],"default_left":[0,0,0,0,0,0,0,0,0,0,0,0,0],"id":42,"left_children":[1,-1,3,-1,5,7,-1,9,-1,11,-1,-1,-1],"loss_changes":[2.944246E1,0E0,1.7032578E1,0E0,1.6352722E1,6.800644E0,0E0,5.3152466E0,0E0,4.2831802E-1,0E0,0E0,0E0],"parents":[2147483647,0,0,2,2,4,4,5,5,7,7,9,9],"right_children":[2,-1,4,-1,6,8,-1,10,-1,12,-1,-1,-1],"split_conditions":[6E1,-1.515878E-1,8.012267E1,-1.4423028E-1,4.6E1,1E2,-1.3877968E-1,8.50864E1,-1.1625849E-1,4.5E1,-1.11544944E-1,3.193463E-1,5.6664383E-1],"split_indices":[0,0,4,0,2,0,0,4,0,2,0,0,0],"split_type":[0,0,0,0,0,0,0,0,0,0,0,0,0],"sum_hessian":[1.26074265E2,5.7906147E1,6.816811E1,1.4496225E1,5.3671886E1,4.4502846E1,9.169043E0,4.1510395E1,2.9924488E0,3.9513405E1,1.9969902E0,3.7824455E1,1.6889518E0],"tree_param":{"num_deleted":"0","num_feature":"6","num_nodes":"13","size_leaf_vector":"0"}},{"base_weights":[-4.423837E-2,-1.5314841E-1,4.990149E-1,8.7176937E-1,-1.4512162E-1,1.0094615E0,-1.2235311E-1,-9.775291E-2,3.241571E-1],"categories":[],"categories_nodes":[],"categories_segments":[],"categories_sizes":[],"default_left":[0,0,0,0,0,0,0,0,0],"id":43,"left_children":[1,-1,3,5,-1,7,-1,-1,-1],"loss_changes":[3.220637E1,0E0,2.1949566E1,7.981537E0,0E0,4.0601006E0,0E0,0E0,0E0],"parents":[2147483647,0,0,2,2,3,3,5,5],"right_children":[2,-1,4,6,-1,8,-1,-1,-1],"split_conditions":[8E1,-1.5314841E-1,3.1E1,2.7012074E1,-1.4512162E-1,3.6E1,-1.2235311E-1,-9.775291E-2,3.241571E-1],"split_indices":[0,0,1,3,0,2,0,0,0],"split_type":[0,0,0,0,0,0,0,0,0],"sum_hessian":[1.25143776E2,6.737679E1,5.776698E1,4.1963375E1,1.5803606E1,3.8077213E1,3.886161E0,1.7428359E0,3.6334377E1],"tree_param":{"num_deleted":"0","num_feature":"6","num_nodes":"9","size_leaf_vector":"0"}},{"base_weights":[-1.8879987E-2,-1.5111038E-1,7.0648825E-1,-1.1588084E-1,2.3919657E-1],"categories":[],"categories_nodes":[],"categories_segments":[],"categories_sizes":[],"default_left":[0,0,0,0,0],"id":44,"left_children":[1,-1,3,-1,-1],"loss_changes":[3.9459785E1,0E0,4.7708855E0,0E0,0E0],"parents":[2147483647,0,0,2,2],"right_children":[2,-1,4,-1,-1],"split_conditions":[1.2E2,-1.5111038E-1,8.418407E1,-1.1588084E-1,2.3919657E-1],"split_indices":[1,0,4,0,0],"split_type":[0,0,0,0,0],"sum_hessian":[1.1019368E2,6.623149E1,4.3962185E1,3.1242263E0,4.083796E1],"tree_param":{"num_deleted":"0","num_feature":"6","num_nodes":"5","size_leaf_vector":"0"}},{"base_weights":[-3.3789605E-2,-1.5070155E-1,4.6177167E-1,-1.4296442E-1,2.4113244E-1],"categories":[],"categories_nodes":[],"categories_segments":[],"categories_sizes":[],"default_left":[0,0,0,0,0],"id":45,"left_children":[1,-1,3,-1,-1],"loss_changes":[2.5583168E1,0E0,1.7577923E1,0E0,0E0],"parents":[2147483647,0,0,2,2],"right_children":[2,-1,4,-1,-1],"split_conditions":[7E1,-1.5070155E-1,6.9E1,-1.4296442E-1,2.4113244E-1],"split_indices":[1,0,0,0,0],"split_type":[0,0,0,0,0],"sum_hessian":[1.0818082E2,5.5598885E1,5.2581936E1,1.3940734E1,3.86412E1],"tree_param":{"num_deleted":"0","num_feature":"6","num_nodes":"5","size_leaf_vector":"0"}},{"base_weights":[3.938061E-2,3.709058E-1,-1.497525E-1,-1.4547153E-1,6.800321E-1,-1.24948144E-1,7.827142E-1,-1.0749732E-1,8.4713006E-1,-1.0521088E-1,9.120763E-1,4.9304083E-1,2.4540575E-1],"categories":[],"categories_nodes":[],"categories_segments":[],"categories_sizes":[],"default_left":[0,0,0,0,0,0,0,0,0,0,0,0,0],"id":46,"left_children":[1,3,-1,-1,5,-1,7,-1,9,-1,11,-1,-1],"loss_changes":[2.0429138E1,1.904819E1,0E0,0E0,6.2254086E0,0E0,3.8504562E0,0E0,3.896492E0,0E0,1.6748085E0,0E0,0E0],"parents":[2147483647,0,0,1,1,4,4,6,6,8,8,10,10],"right_children":[2,4,-1,-1,6,-1,8,-1,10,-1,12,-1,-1],"split_conditions":[7.074739E1,6.0132637E1,-1.497525E-1,-1.4547153E-1,6.4996047E0,-1.24948144E-1,5.3E1,-1.0749732E-1,2E1,-1.0521088E-1,6.156205E1,4.9304083E-1,2.4540575E-1],"split_indices":[4,4,0,0,5,0,1,0,0,0,4,0,0],"split_type":[0,0,0,0,0,0,0,0,0,0,0,0,0],"sum_hessian":[1.123833E2,6.975479E1,4.262851E1,1.8359156E1,5.1395638E1,4.1390657E0,4.7256573E1,2.2814343E0,4.497514E1,2.086833E0,4.2888306E1,3.0099223E0,3.9878384E1],"tree_param":{"num_deleted":"0","num_feature":"6","num_nodes":"13","size_leaf_vector":"0"}},{"base_weights":[-3.455636E-2,7.6604456E-1,-1.5115999E-1,-8.030171E-2,2.404521E-1],"categories":[],"categories_nodes":[],"categories_segments":[],"categories_sizes":[],"default_left":[0,0,0,0,0],"id":47,"left_children":[1,3,-1,-1,-1],"loss_changes":[4.136971E1,1.7068062E0,0E0,0E0,0E0],"parents":[2147483647,0,0,1,1],"right_children":[2,4,-1,-1,-1],"split_conditions":[2.001731E1,2.6E1,-1.5115999E-1,-8.030171E-2,2.404521E-1],"split_indices":[4,2,0,0,0],"split_type":[0,0,0,0,0],"sum_hessian":[1.0807754E2,3.970763E1,6.83699E1,1.0998329E0,3.8607796E1],"tree_param":{"num_deleted":"0","num_feature":"6","num_nodes":"5","size_leaf_vector":"0"}},{"base_weights":[1.0503252E-2,-4.8589844E-1,5.856595E-1,-1.507013E-1,-6.970351E-2,8.083925E-1,-1.371971E-1,7.1869366E-2,-8.9610204E-2,-1.1344248E-1,2.7083898E-1],"categories":[],"categories_nodes":[],"categories_segments":[],"categories_sizes":[],"default_left":[0,0,0,0,0,0,0,0,0,0,0],"id":48,"left_children":[1,3,5,-1,7,9,-1,-1,-1,-1,-1],"loss_changes":[3.1499786E1,3.702345E-1,1.2240978E1,0E0,3.131831E-1,5.0986557E0,0E0,0E0,0E0,0E0,0E0],"parents":[2147483647,0,0,1,1,2,2,4,4,5,5],"right_children":[2,4,6,-1,8,10,-1,-1,-1,-1,-1],"split_conditions":[9.079094E1,9.021647E1,3.6E1,-1.507013E-1,2.5E1,1.6E1,-1.371971E-1,7.1869366E-2,-8.9610204E-2,-1.1344248E-1,2.7083898E-1],"split_indices":[4,4,2,0,0,2,0,0,0,0,0],"split_type":[0,0,0,0,0,0,0,0,0,0,0],"sum_hessian":[1.08331985E2,5.8230244E1,5.0101746E1,5.5818497E1,2.4117463E0,4.147049E1,8.631257E0,1.0064104E0,1.4053359E0,2.8348308E0,3.863566E1],"tree_param":{"num_deleted":"0","num_feature":"6","num_nodes":"11","size_leaf_vector":"0"}},{"base_weights":[-3.3770174E-2,-1.5050545E-1,4.0878713E-1,8.030918E-1,-4.560092E-1,2.5340813E-1,-1.09926365E-1,-1.4170011E-2,-1.4447239E-1],"categories":[],"categories_nodes":[],"categories_segments":[],"categories_sizes":[],"default_left":[0,0,0,0,0,0,0,0,0],"id":49,"left_children":[1,-1,3,5,7,-1,-1,-1,-1],"loss_changes":[2.281548E1,0E0,1.968864E1,2.220728E0,1.6936898E-1,0E0,0E0,0E0,0E0],"parents":[2147483647,0,0,2,2,3,3,4,4],"right_children":[2,-1,4,6,8,-1,-1,-1,-1],"split_conditions":[8E1,-1.5050545E-1,6.936385E1,4.1E1,7.1450905E1,2.5340813E-1,-1.09926365E-1,-1.4170011E-2,-1.4447239E-1],"split_indices":[0,0,4,1,4,0,0,0,0],"split_type":[0,0,0,0,0,0,0,0,0],"sum_hessian":[1.0818726E2,5.252214E1,5.5665123E1,3.8281837E1,1.7383287E1,3.7235054E1,1.0467849E0,1.1907918E0,1.6192495E1],"tree_param":{"num_deleted":"0","num_feature":"6","num_nodes":"9","size_leaf_vector":"0"}},{"base_weights":[2.4896026E-2,-1.5095457E-1,7.10435E-1,8.861364E-1,-1.3169755E-1,-1.1921816E-1,2.8591445E-1],"categories":[],"categories_nodes":[],"categories_segments":[],"categories_sizes":[],"default_left":[0,0,0,0,0,0,0],"id":50,"left_children":[1,-1,3,5,-1,-1,-1],"loss_changes":[4.0710392E1,0E0,1.02680435E1,4.051281E0,0E0,0E0,0E0],"parents":[2147483647,0,0,2,2,3,3],"right_children":[2,-1,4,6,-1,-1,-1],"split_conditions":[1E2,-1.5095457E-1,2.6E1,6.868401E1,-1.3169755E-1,-1.1921816E-1,2.8591445E-1],"split_indices":[0,0,2,4,0,0,0],"split_type":[0,0,0,0,0,0,0],"sum_hessian":[1.10466606E2,6.2549824E1,4.7916786E1,4.1762093E1,6.1546946E0,1.824507E0,3.9937584E1],"tree_param":{"num_deleted":"0","num_feature":"6","num_nodes":"7","size_leaf_vector":"0"}},{"base_weights":[-3.185598E-2,-1.5111038E-1,7.019379E-1,2.3998664E-1,-1.16853915E-1],"categories":[],"categories_nodes":[],"categories_segments":[],"categories_sizes":[],"default_left":[0,0,0,0,0],"id":51,"left_children":[1,-1,3,-1,-1],"loss_changes":[3.8268696E1,0E0,4.9411793E0,0E0,0E0],"parents":[2147483647,0,0,2,2],"right_children":[2,-1,4,-1,-1],"split_conditions":[1.2E2,-1.5111038E-1,8.415404E1,2.3998664E-1,-1.16853915E-1],"split_indices":[1,0,4,0,0],"split_type":[0,0,0,0,0],"sum_hessian":[1.0850621E2,6.623149E1,4.2274715E1,3.903615E1,3.2385602E0],"tree_param":{"num_deleted":"0","num_feature":"6","num_nodes":"5","size_leaf_vector":"0"}},{"base_weights":[6.466728E-2,-1.50093E-1,4.2971748E-1,-3.691218E-1,5.9506375E-1,-1.428412E-1,3.9061338E-2,-1.3401671E-1,7.381947E-1,-1.0028912E-1,9.5265076E-2,8.563483E-1,-3.1207496E-1,-1.0716526E-1,9.190663E-1,4.559803E-2,-1.3003688E-1,2.9864734E-1,-6.718708E-2],"categories":[],"categories_nodes":[],"categories_segments":[],"categories_sizes":[],"default_left":[0,0,0,0,0,0,0,0,0,0,0,0,0,0,0,0,0,0,0],"id":52,"left_children":[1,-1,3,5,7,-1,9,-1,11,-1,-1,13,15,-1,17,-1,-1,-1,-1],"loss_changes":[2.4688383E1,0E0,9.812079E0,5.895721E-1,9.358776E0,0E0,4.8455507E-1,0E0,6.920454E0,0E0,0E0,4.01672E0,4.125629E-1,0E0,4.2726135E0,0E0,0E0,0E0,0E0],"parents":[2147483647,0,0,2,2,3,3,4,4,6,6,8,8,11,11,12,12,14,14],"right_children":[2,-1,4,6,8,-1,10,-1,12,-1,-1,14,16,-1,18,-1,-1,-1,-1],"split_conditions":[6E1,-1.50093E-1,3.6E1,3.5E1,3.5E1,-1.428412E-1,7.9E1,-1.3401671E-1,6E1,-1.0028912E-1,9.5265076E-2,6.014572E0,2.5357948E1,-1.0716526E-1,7.437078E0,4.559803E-2,-1.3003688E-1,2.9864734E-1,-6.718708E-2],"split_indices":[0,0,1,1,2,0,0,0,1,0,0,5,3,0,5,0,0,0,0],"split_type":[0,0,0,0,0,0,0,0,0,0,0,0,0,0,0,0,0,0,0],"sum_hessian":[1.17661705E2,4.6038605E1,7.16231E1,1.2071158E1,5.9551937E1,9.431874E0,2.6392848E0,6.937307E0,5.261463E1,1.041967E0,1.5973178E0,4.746009E1,5.1545415E0,2.101495E0,4.5358593E1,1.0164026E0,4.138139E0,4.2636883E1,2.7217135E0],"tree_param":{"num_deleted":"0","num_feature":"6","num_nodes":"19","size_leaf_vector":"0"}},{"base_weights":[-8.246701E-3,7.4199516E-1,-1.5274633E-1,2.4980952E-1,-1.1559582E-1],"categories":[],"categories_nodes":[],"categories_segments":[],"categories_sizes":[],"default_left":[0,0,0,0,0],"id":53,"left_children":[1,3,-1,-1,-1],"loss_changes":[4.296129E1,5.00119E0,0E0,0E0,0E0],"parents":[2147483647,0,0,1,1],"right_children":[2,4,-1,-1,-1],"split_conditions":[3.0400467E1,2.6E1,-1.5274633E-1,2.4980952E-1,-1.1559582E-1],"split_indices":[4,2,0,0,0],"split_type":[0,0,0,0,0],"sum_hessian":[1.12313675E2,4.4772984E1,6.7540695E1,4.1680717E1,3.0922678E0],"tree_param":{"num_deleted":"0","num_feature":"6","num_nodes":"5","size_leaf_vector":"0"}},{"base_weights":[1.4380615E-2,3.304341E-1,-1.5106225E-1,-1.4559346E-1,6.210601E-1,7.3103124E-1,-1.2689644E-1,-1.4395885E-1,8.155673E-1,8.519654E-1,-8.514747E-2,2.7373514E-1,1.5604797E-1],"categories":[],"categories_nodes":[],"categories_segments":[],"categories_sizes":[],"default_left":[0,0,0,0,0,0,0,0,0,0,0,0,0],"id":54,"left_children":[1,3,-1,-1,5,7,-1,-1,9,11,-1,-1,-1],"loss_changes":[1.9092356E1,1.7467455E1,0E0,0E0,6.489216E0,5.413641E0,0E0,0E0,2.0918007E0,4.284935E-1,0E0,0E0,0E0],"parents":[2147483647,0,0,1,1,4,4,5,5,8,8,9,9],"right_children":[2,4,-1,-1,6,8,-1,-1,10,12,-1,-1,-1],"split_conditions":[6.9843544E1,6.0194614E1,-1.5106225E-1,-1.4559346E-1,4.1E1,5.804965E0,-1.2689644E-1,-1.4395885E-1,2.9892866E1,2.3E1,-8.514747E-2,2.7373514E-1,1.5604797E-1],"split_indices":[4,4,0,0,0,5,0,0,3,2,0,0,0],"split_type":[0,0,0,0,0,0,0,0,0,0,0,0,0],"sum_hessian":[1.1462018E2,7.1407104E1,4.3213074E1,1.8581524E1,5.2825577E1,4.8062855E1,4.762723E0,2.831274E0,4.523158E1,4.3999912E1,1.2316674E0,3.573568E1,8.264235E0],"tree_param":{"num_deleted":"0","num_feature":"6","num_nodes":"13","size_leaf_vector":"0"}},{"base_weights":[-2.5085406E-2,-1.50093E-1,3.3604848E-1,7.335328E-1,-1.4601338E-1,2.595418E-1,-1.2344826E-1],"categories":[],"categories_nodes":[],"categories_segments":[],"categories_sizes":[],"default_left":[0,0,0,0,0,0,0],"id":55,"left_children":[1,-1,3,5,-1,-1,-1],"loss_changes":[1.8704308E1,0E0,2.0622887E1,6.7124977E0,0E0,0E0,0E0],"parents":[2147483647,0,0,2,2,3,3],"right_children":[2,-1,4,6,-1,-1,-1],"split_conditions":[6E1,-1.50093E-1,2.6E1,1.01E2,-1.4601338E-1,2.595418E-1,-1.2344826E-1],"split_indices":[0,0,2,0,0,0,0],"split_type":[0,0,0,0,0,0,0],"sum_hessian":[1.0700728E2,4.6038605E1,6.0968674E1,4.118176E1,1.9786915E1,3.7155624E1,4.026137E0],"tree_param":{"num_deleted":"0","num_feature":"6","num_nodes":"7","size_leaf_vector":"0"}},{"base_weights":[-1.5982715E-2,5.0897896E-1,-1.5071243E-1,7.6988167E-1,-1.40678E-1,-1.5866324E-1,8.70979E-1,2.723639E-1,-7.846067E-2],"categories":[],"categories_nodes":[],"categories_segments":[],"categories_sizes":[],"default_left":[0,0,0,0,0,0,0,0,0],"id":56,"left_children":[1,3,-1,5,-1,-1,7,-1,-1],"loss_changes":[2.8629675E1,1.4123065E1,0E0,6.101074E0,0E0,0E0,1.9188175E0,0E0,0E0],"parents":[2147483647,0,0,1,1,3,3,6,6],"right_children":[2,4,-1,6,-1,-1,8,-1,-1],"split_conditions":[5.5187923E1,4.1E1,-1.5071243E-1,2.5E1,-1.40678E-1,-1.5866324E-1,4.1E1,2.723639E-1,-7.846067E-2],"split_indices":[4,1,0,2,0,0,0,0,0],"split_type":[0,0,0,0,0,0,0,0,0],"sum_hessian":[1.1012356E2,5.293957E1,5.7183983E1,4.1958008E1,1.0981564E1,2.724611E0,3.92334E1,3.818749E1,1.0459096E0],"tree_param":{"num_deleted":"0","num_feature":"6","num_nodes":"9","size_leaf_vector":"0"}},{"base_weights":[7.891002E-2,5.1666564E-1,-1.5012762E-1,7.419426E-1,-1.4151518E-1,9.222369E-1,-1.3417782E-1,1.016169E0,-1.1657157E-1,-1.1461534E-1,1.0963343E0,3.4462017E-1,-1.08871564E-1],"categories":[],"categories_nodes":[],"categories_segments":[],"categories_sizes":[],"default_left":[0,0,0,0,0,0,0,0,0,0,0,0,0],"id":57,"left_children":[1,3,-1,5,-1,7,-1,9,-1,-1,11,-1,-1],"loss_changes":[2.8577078E1,1.4621422E1,0E0,1.1687399E1,0E0,6.0574913E0,0E0,5.260147E0,0E0,0E0,3.5601387E0,0E0,0E0],"parents":[2147483647,0,0,1,1,3,3,5,5,7,7,10,10],"right_children":[2,4,-1,6,-1,8,-1,10,-1,-1,12,-1,-1],"split_conditions":[6.510343E1,6.1E1,-1.5012762E-1,2.6E1,-1.4151518E-1,4.1E1,-1.3417782E-1,4.0009335E1,-1.1657157E-1,-1.1461534E-1,3.2134098E1,3.4462017E-1,-1.08871564E-1],"split_indices":[4,1,0,2,0,0,0,4,0,0,3,0,0],"split_type":[0,0,0,0,0,0,0,0,0,0,0,0,0],"sum_hessian":[1.1066288E2,6.3095234E1,4.7567646E1,5.1586685E1,1.1508548E1,4.499023E1,6.596456E0,4.2191574E1,2.7986546E0,2.0836358E0,4.010794E1,3.8923046E1,1.1848937E0],"tree_param":{"num_deleted":"0","num_feature":"6","num_nodes":"13","size_leaf_vector":"0"}},{"base_weights":[-3.381817E-2,-1.499791E-1,2.9618248E-1,-1.4356633E-1,5.210018E-1,7.592011E-1,-1.3866979E-1,-8.550971E-2,2.3975529E-1],"categories":[],"categories_nodes":[],"categories_segments":[],"categories_sizes":[],"default_left":[0,0,0,0,0,0,0,0,0],"id":58,"left_children":[1,-1,3,-1,5,7,-1,-1,-1],"loss_changes":[1.7040485E1,0E0,1.1557987E1,0E0,1.2249098E1,1.9510288E0,0E0,0E0,0E0],"parents":[2147483647,0,0,2,2,4,4,5,5],"right_children":[2,-1,4,-1,6,8,-1,-1,-1],"split_conditions":[2.7014704E1,-1.499791E-1,7.97961E1,-1.4356633E-1,2.6E1,3.1E1,-1.3866979E-1,-8.550971E-2,2.3975529E-1],"split_indices":[3,0,4,0,2,1,0,0,0],"split_type":[0,0,0,0,0,0,0,0,0],"sum_hessian":[1.08821304E2,4.4894608E1,6.3926693E1,1.4124492E1,4.9802204E1,4.0273388E1,9.528815E0,1.2591652E0,3.901422E1],"tree_param":{"num_deleted":"0","num_feature":"6","num_nodes":"9","size_leaf_vector":"0"}},{"base_weights":[-6.9720745E-2,-1.5067388E-1,4.2289084E-1,-1.4347517E-1,2.4547322E-1],"categories":[],"categories_nodes":[],"categories_segments":[],"categories_sizes":[],"default_left":[0,0,0,0,0],"id":59,"left_children":[1,-1,3,-1,-1],"loss_changes":[2.2502207E1,0E0,1.8009785E1,0E0,0E0],"parents":[2147483647,0,0,2,2],"right_children":[2,-1,4,-1,-1],"split_conditions":[9.001506E1,-1.5067388E-1,7.1E1,-1.4347517E-1,2.4547322E-1],"split_indices":[4,0,0,0,0],"split_type":[0,0,0,0,0],"sum_hessian":[1.0361407E2,5.5161396E1,4.8452667E1,1.4711223E1,3.3741444E1],"tree_param":{"num_deleted":"0","num_feature":"6","num_nodes":"5","size_leaf_vector":"0"}},{"base_weights":[6.0219634E-3,7.743885E-1,-1.5106843E-1,8.7260157E-1,-1.1737964E-1,2.4026643E-1,5.0734997E-1],"categories":[],"categories_nodes":[],"categories_segments":[],"categories_sizes":[],"default_left":[0,0,0,0,0,0,0],"id":60,"left_children":[1,3,-1,5,-1,-1,-1],"loss_changes":[4.382117E1,5.450121E0,0E0,1.0797215E0,0E0,0E0,0E0],"parents":[2147483647,0,0,1,1,3,3],"right_children":[2,4,-1,6,-1,-1,-1],"split_conditions":[1.6E1,3.1E1,-1.5106843E-1,1.5E1,-1.1737964E-1,2.4026643E-1,5.0734997E-1],"split_indices":[2,1,0,2,0,0,0],"split_type":[0,0,0,0,0,0,0],"sum_hessian":[1.0992216E2,4.362432E1,6.629784E1,4.0466217E1,3.158106E0,3.902563E1,1.4405837E0],"tree_param":{"num_deleted":"0","num_feature":"6","num_nodes":"7","size_leaf_vector":"0"}},{"base_weights":[1.4474658E-2,-1.5069167E-1,5.5386823E-1,-1.4013581E-1,8.169166E-1,2.764409E-1,-1.1622815E-1],"categories":[],"categories_nodes":[],"categories_segments":[],"categories_sizes":[],"default_left":[0,0,0,0,0,0,0],"id":61,"left_children":[1,-1,3,-1,5,-1,-1],"loss_changes":[3.0799496E1,0E0,1.4897902E1,0E0,5.814459E0,0E0,0E0],"parents":[2147483647,0,0,2,2,4,4],"right_children":[2,-1,4,-1,6,-1,-1],"split_conditions":[9.0076004E1,-1.5069167E-1,3.1E1,-1.4013581E-1,7.1E1,2.764409E-1,-1.1622815E-1],"split_indices":[4,0,1,0,1,0,0],"split_type":[0,0,0,0,0,0,0],"sum_hessian":[1.0849422E2,5.5443687E1,5.3050526E1,1.0709032E1,4.234149E1,3.9175426E1,3.1660678E0],"tree_param":{"num_deleted":"0","num_feature":"6","num_nodes":"7","size_leaf_vector":"0"}},{"base_weights":[8.5530385E-2,4.5704922E-1,-1.5015166E-1,-1.406491E-1,6.3673925E-1,-1.3477273E-1,7.860124E-1,1.0196522E0,2.700287E-1,-1.1582598E-1,1.0906591E0,9.1341305E-1,-2.7418673E-1,2.3461375E-1,3.9146632E-1,3.3911678E-1,-1.04791485E-2,2.7668914E-2,-1.3387072E-1],"categories":[],"categories_nodes":[],"categories_segments":[],"categories_sizes":[],"default_left":[0,0,0,0,0,0,0,0,0,0,0,0,0,0,0,0,0,0,0],"id":62,"left_children":[1,3,-1,-1,5,-1,7,9,11,-1,13,15,17,-1,-1,-1,-1,-1,-1],"loss_changes":[2.4788317E1,1.1871109E1,0E0,0E0,9.865175E0,0E0,5.987488E0,3.9544563E0,6.39605E0,0E0,1.2245941E0,1.7420073E0,6.8908995E-1,0E0,0E0,0E0,0E0,0E0,0E0],"parents":[2147483647,0,0,1,1,4,4,6,6,7,7,8,8,10,10,11,11,12,12],"right_children":[2,4,-1,-1,6,-1,8,10,12,-1,14,16,18,-1,-1,-1,-1,-1,-1],"split_conditions":[6.9693665E1,5.5E1,-1.5015166E-1,-1.406491E-1,3.0400467E1,-1.3477273E-1,6.4727564E0,4.548202E0,5.7031845E1,-1.1582598E-1,2.7159985E1,3E1,6.936998E0,2.3461375E-1,3.9146632E-1,3.3911678E-1,-1.04791485E-2,2.7668914E-2,-1.3387072E-1],"split_indices":[4,1,0,0,4,0,5,5,4,0,3,0,5,0,0,0,0,0,0],"split_type":[0,0,0,0,0,0,0,0,0,0,0,0,0,0,0,0,0,0,0],"sum_hessian":[1.1180168E2,6.8558784E1,4.32429E1,1.0881439E1,5.767734E1,6.7271233E0,5.095022E1,3.4398354E1,1.6551865E1,1.4406292E0,3.2957726E1,7.273986E0,9.27788E0,1.540955E1,1.7548174E1,5.763389E0,1.5105964E0,3.112677E0,6.1652026E0],"tree_param":{"num_deleted":"0","num_feature":"6","num_nodes":"19","size_leaf_vector":"0"}},{"base_weights":[-2.9234724E-2,4.2969057E-1,-1.5062124E-1,6.9468874E-1,-1.4175478E-1,-1.13144934E-1,7.773505E-1,2.4318029E-1,-7.7967644E-2],"categories":[],"categories_nodes":[],"categories_segments":[],"categories_sizes":[],"default_left":[0,0,0,0,0,0,0,0,0],"id":63,"left_children":[1,3,-1,5,-1,-1,7,-1,-1],"loss_changes":[2.4057365E1,1.3787323E1,0E0,4.184353E0,0E0,0E0,1.6281757E0,0E0,0E0],"parents":[2147483647,0,0,1,1,3,3,6,6],"right_children":[2,4,-1,6,-1,-1,8,-1,-1],"split_conditions":[3.1E1,2.5009333E1,-1.5062124E-1,3.5E1,-1.4175478E-1,-1.13144934E-1,4.1E1,2.4318029E-1,-7.7967644E-2],"split_indices":[1,3,0,2,0,0,0,0,0],"split_type":[0,0,0,0,0,0,0,0,0],"sum_hessian":[1.0887106E2,5.5294537E1,5.3576527E1,4.291844E1,1.2376093E1,2.8178637E0,4.010058E1,3.906674E1,1.0338417E0],"tree_param":{"num_deleted":"0","num_feature":"6","num_nodes":"9","size_leaf_vector":"0"}},{"base_weights":[2.2786671E-2,-1.50093E-1,3.8464108E-1,-1.4119086E-1,5.693039E-1,7.2997403E-1,-1.34644E-1,7.9565716E-1,-1.095995E-1,8.482523E-1,-1.05281636E-1,3.248629E-1,2.1553805E-1],"categories":[],"categories_nodes":[],"categories_segments":[],"categories_sizes":[],"default_left":[0,0,0,0,0,0,0,0,0,0,0,0,0],"id":64,"left_children":[1,-1,3,-1,5,7,-1,9,-1,11,-1,-1,-1],"loss_changes":[2.1766111E1,0E0,1.099761E1,0E0,9.541346E0,3.8179588E0,0E0,3.1060772E0,0E0,5.868645E-1,0E0,0E0,0E0],"parents":[2147483647,0,0,2,2,4,4,5,5,7,7,9,9],"right_children":[2,-1,4,-1,6,8,-1,10,-1,12,-1,-1,-1],"split_conditions":[6E1,-1.50093E-1,8.012267E1,-1.4119086E-1,4.6E1,1E2,-1.34644E-1,8.50864E1,-1.095995E-1,6.0204453E0,-1.05281636E-1,3.248629E-1,2.1553805E-1],"split_indices":[0,0,4,0,2,0,0,4,0,5,0,0,0],"split_type":[0,0,0,0,0,0,0,0,0,0,0,0,0],"sum_hessian":[1.1297463E2,4.6038605E1,6.693603E1,1.1610883E1,5.5325146E1,4.8028706E1,7.296443E0,4.556957E1,2.4591358E0,4.381973E1,1.7498399E0,1.2991664E1,3.0828064E1],"tree_param":{"num_deleted":"0","num_feature":"6","num_nodes":"13","size_leaf_vector":"0"}},{"base_weights":[-4.3290097E-2,-1.5157488E-1,4.2490265E-1,7.1294004E-1,-1.4227164E-1,8.1214327E-1,-1.1572425E-1,-9.025503E-2,2.591307E-1],"categories":[],"categories_nodes":[],"categories_segments":[],"categories_sizes":[],"default_left":[0,0,0,0,0,0,0,0,0],"id":65,"left_children":[1,-1,3,5,-1,7,-1,-1,-1],"loss_changes":[2.3500822E1,0E0,1.432706E1,4.815645E0,0E0,2.4553528E0,0E0,0E0,0E0],"parents":[2147483647,0,0,2,2,3,3,5,5],"right_children":[2,-1,4,6,-1,8,-1,-1,-1],"split_conditions":[8E1,-1.5157488E-1,3.1E1,2.7048635E1,-1.4227164E-1,3.6E1,-1.1572425E-1,-9.025503E-2,2.591307E-1],"split_indices":[0,0,1,3,0,2,0,0,0],"split_type":[0,0,0,0,0,0,0,0,0],"sum_hessian":[1.0666362E2,5.3649364E1,5.301425E1,4.0308594E1,1.2705656E1,3.720965E1,3.0989456E0,1.4354461E0,3.5774204E1],"tree_param":{"num_deleted":"0","num_feature":"6","num_nodes":"9","size_leaf_vector":"0"}},{"base_weights":[-2.1604208E-2,-1.4984754E-1,6.20461E-1,-1.0900111E-1,2.0899253E-1],"categories":[],"categories_nodes":[],"categories_segments":[],"categories_sizes":[],"default_left":[0,0,0,0,0],"id":66,"left_children":[1,-1,3,-1,-1],"loss_changes":[2.8564495E1,0E0,3.2313766E0,0E0,0E0],"parents":[2147483647,0,0,2,2],"right_children":[2,-1,4,-1,-1],"split_conditions":[1.2E2,-1.4984754E-1,8.4134186E1,-1.0900111E-1,2.0899253E-1],"split_indices":[1,0,4,0,0],"split_type":[0,0,0,0,0],"sum_hessian":[9.108396E1,5.2345436E1,3.8738525E1,2.513233E0,3.6225292E1],"tree_param":{"num_deleted":"0","num_feature":"6","num_nodes":"5","size_leaf_vector":"0"}},{"base_weights":[-3.5615966E-2,-1.4933717E-1,4.134397E-1,-1.3986488E-1,2.1014513E-1],"categories":[],"categories_nodes":[],"categories_segments":[],"categories_sizes":[],"default_left":[0,0,0,0,0],"id":67,"left_children":[1,-1,3,-1,-1],"loss_changes":[1.8968517E1,0E0,1.2042381E1,0E0,0E0],"parents":[2147483647,0,0,2,2],"right_children":[2,-1,4,-1,-1],"split_conditions":[7E1,-1.4933717E-1,6.9E1,-1.3986488E-1,2.1014513E-1],"split_indices":[1,0,0,0,0],"split_type":[0,0,0,0,0],"sum_hessian":[8.940435E1,4.400512E1,4.5399235E1,1.1016034E1,3.43832E1],"tree_param":{"num_deleted":"0","num_feature":"6","num_nodes":"5","size_leaf_vector":"0"}},{"base_weights":[4.2343836E-2,3.2612437E-1,-1.4818186E-1,-1.428615E-1,5.646831E-1,-1.1985312E-1,6.464838E-1,-1.0087099E-1,6.937143E-1,7.308503E-1,-1.06889635E-1,1.5679568E-1,2.6450184E-1],"categories":[],"categories_nodes":[],"categories_segments":[],"categories_sizes":[],"default_left":[0,0,0,0,0,0,0,0,0,0,0,0,0],"id":68,"left_children":[1,3,-1,-1,5,-1,7,-1,9,11,-1,-1,-1],"loss_changes":[1.5218845E1,1.2768675E1,0E0,0E0,4.2646675E0,0E0,2.4242802E0,0E0,2.0294304E0,9.254017E-1,0E0,0E0,0E0],"parents":[2147483647,0,0,1,1,4,4,6,6,8,8,9,9],"right_children":[2,4,-1,-1,6,-1,8,-1,10,12,-1,-1,-1],"split_conditions":[7.004557E1,6.0132637E1,-1.4818186E-1,-1.428615E-1,2.5191925E1,-1.1985312E-1,6.501869E0,-1.0087099E-1,7.782051E0,3.7E1,-1.06889635E-1,1.5679568E-1,2.6450184E-1],"split_indices":[4,4,0,0,3,0,5,0,5,0,0,0,0],"split_type":[0,0,0,0,0,0,0,0,0,0,0,0,0],"sum_hessian":[9.794262E1,6.430615E1,3.3636467E1,1.4509865E1,4.979629E1,3.590519E0,4.6205772E1,1.8382605E0,4.436751E1,4.314554E1,1.2219734E0,2.0001062E1,2.3144474E1],"tree_param":{"num_deleted":"0","num_feature":"6","num_nodes":"13","size_leaf_vector":"0"}},{"base_weights":[-3.6415383E-2,6.68003E-1,-1.4991488E-1,-1.8794026E-2,2.0913027E-1],"categories":[],"categories_nodes":[],"categories_segments":[],"categories_sizes":[],"default_left":[0,0,0,0,0],"id":69,"left_children":[1,3,-1,-1,-1],"loss_changes":[2.9780127E1,8.138523E-1,0E0,0E0,0E0],"parents":[2147483647,0,0,1,1],"right_children":[2,4,-1,-1,-1],"split_conditions":[2.001731E1,5.996932E0,-1.4991488E-1,-1.8794026E-2,2.0913027E-1],"split_indices":[4,5,0,0,0],"split_type":[0,0,0,0,0],"sum_hessian":[8.922713E1,3.5226192E1,5.4000935E1,1.3049839E0,3.392121E1],"tree_param":{"num_deleted":"0","num_feature":"6","num_nodes":"5","size_leaf_vector":"0"}},{"base_weights":[7.485287E-3,-4.7738856E-1,5.0406975E-1,-1.4935336E-1,-1.2662752E-2,6.7903763E-1,-1.3292295E-1,-7.740326E-2,7.2215684E-2,-1.06813714E-1,7.533458E-1,7.176921E-2,2.2993512E-1],"categories":[],"categories_nodes":[],"categories_segments":[],"categories_sizes":[],"default_left":[0,0,0,0,0,0,0,0,0,0,0,0,0],"id":70,"left_children":[1,3,5,-1,7,9,-1,-1,-1,-1,11,-1,-1],"loss_changes":[2.252777E1,4.4379425E-1,7.959649E0,0E0,2.4999514E-1,3.298973E0,0E0,0E0,0E0,0E0,6.6495895E-2,0E0,0E0],"parents":[2147483647,0,0,1,1,2,2,4,4,5,5,10,10],"right_children":[2,4,6,-1,8,10,-1,-1,-1,-1,12,-1,-1],"split_conditions":[9.079094E1,9.0264084E1,3.6E1,-1.4935336E-1,2.4568111E1,1.6E1,-1.3292295E-1,-7.740326E-2,7.2215684E-2,-1.06813714E-1,2.5517914E1,7.176921E-2,2.2993512E-1],"split_indices":[4,4,2,0,3,2,0,0,0,0,3,0,0],"split_type":[0,0,0,0,0,0,0,0,0,0,0,0,0],"sum_hessian":[9.156191E1,4.6346764E1,4.5215145E1,4.4324455E1,2.022309E0,3.8403812E1,6.8113313E0,1.0181605E0,1.0041486E0,2.3183687E0,3.6085445E1,1.3755589E0,3.4709885E1],"tree_param":{"num_deleted":"0","num_feature":"6","num_nodes":"13","size_leaf_vector":"0"}},{"base_weights":[-3.371815E-2,-1.4909834E-1,3.6079696E-1,6.883169E-1,-4.454544E-1,-4.774767E-2,2.1807188E-1,-1.1296758E-2,-1.4183824E-1],"categories":[],"categories_nodes":[],"categories_segments":[],"categories_sizes":[],"default_left":[0,0,0,0,0,0,0,0,0],"id":71,"left_children":[1,-1,3,5,7,-1,-1,-1,-1],"loss_changes":[1.6898321E1,0E0,1.3505487E1,1.2909775E0,1.4994812E-1,0E0,0E0,0E0,0E0],"parents":[2147483647,0,0,2,2,3,3,4,4],"right_children":[2,-1,4,6,8,-1,-1,-1,-1],"split_conditions":[8E1,-1.4909834E-1,6.936385E1,2.3078955E1,7.095706E1,-4.774767E-2,2.1807188E-1,-1.1296758E-2,-1.4183824E-1],"split_indices":[0,0,4,3,4,0,0,0,0],"split_type":[0,0,0,0,0,0,0,0,0],"sum_hessian":[9.047591E1,4.149218E1,4.898373E1,3.49375E1,1.404623E1,1.3855028E0,3.3552E1,1.0318909E0,1.3014339E1],"tree_param":{"num_deleted":"0","num_feature":"6","num_nodes":"9","size_leaf_vector":"0"}},{"base_weights":[2.1220034E-2,-1.4966607E-1,6.009453E-1,7.3546964E-1,-1.265944E-1,-1.0871041E-1,2.3684502E-1],"categories":[],"categories_nodes":[],"categories_segments":[],"categories_sizes":[],"default_left":[0,0,0,0,0,0,0],"id":72,"left_children":[1,-1,3,5,-1,-1,-1],"loss_changes":[2.8843456E1,0E0,6.5331345E0,2.6775684E0,0E0,0E0,0E0],"parents":[2147483647,0,0,2,2,3,3],"right_children":[2,-1,4,6,-1,-1,-1],"split_conditions":[1E2,-1.4966607E-1,2.6E1,6.87581E1,-1.265944E-1,-1.0871041E-1,2.3684502E-1],"split_indices":[0,0,2,4,0,0,0],"split_type":[0,0,0,0,0,0,0],"sum_hessian":[9.366615E1,4.9445244E1,4.4220905E1,3.93297E1,4.8912067E0,1.5765834E0,3.7753117E1],"tree_param":{"num_deleted":"0","num_feature":"6","num_nodes":"7","size_leaf_vector":"0"}},{"base_weights":[-3.446927E-2,-1.4984754E-1,6.152921E-1,2.091582E-1,-1.10004514E-1],"categories":[],"categories_nodes":[],"categories_segments":[],"categories_sizes":[],"default_left":[0,0,0,0,0],"id":73,"left_children":[1,-1,3,-1,-1],"loss_changes":[2.7675459E1,0E0,3.330432E0,0E0,0E0],"parents":[2147483647,0,0,2,2],"right_children":[2,-1,4,-1,-1],"split_conditions":[1.2E2,-1.4984754E-1,8.416855E1,2.091582E-1,-1.10004514E-1],"split_indices":[1,0,4,0,0],"split_type":[0,0,0,0,0],"sum_hessian":[8.957685E1,5.2345436E1,3.723142E1,3.463286E1,2.5985603E0],"tree_param":{"num_deleted":"0","num_feature":"6","num_nodes":"5","size_leaf_vector":"0"}},{"base_weights":[6.263144E-2,-1.4859223E-1,3.561322E-1,-1.3793604E-1,4.5982414E-1,-1.3041182E-1,5.5864763E-1,6.246341E-1,-1.1902721E-1,8.883844E-1,4.0882355E-1,-2.1350976E-2,2.8695536E-1,-1.5074101E-1,1.6409038E-1],"categories":[],"categories_nodes":[],"categories_segments":[],"categories_sizes":[],"default_left":[0,0,0,0,0,0,0,0,0,0,0,0,0,0,0],"id":74,"left_children":[1,-1,3,-1,5,-1,7,9,-1,11,13,-1,-1,-1,-1],"loss_changes":[1.7726774E1,0E0,6.202404E0,0E0,5.8410206E0,0E0,3.870634E0,2.7185078E0,0E0,1.6052227E0,4.256617E0,0E0,0E0,0E0,0E0],"parents":[2147483647,0,0,2,2,4,4,6,6,7,7,9,9,10,10],"right_children":[2,-1,4,-1,6,-1,8,10,-1,12,14,-1,-1,-1,-1],"split_conditions":[6E1,-1.4859223E-1,3.5E1,-1.3793604E-1,3.5E1,-1.3041182E-1,6.1E1,8.0034996E1,-1.1902721E-1,7.095706E1,8.0572266E1,-2.1350976E-2,2.8695536E-1,-1.5074101E-1,1.6409038E-1],"split_indices":[0,0,1,0,2,0,1,4,0,4,4,0,0,0,0],"split_type":[0,0,0,0,0,0,0,0,0,0,0,0,0,0,0],"sum_hessian":[1.0617431E2,3.6362453E1,6.981186E1,7.484505E0,6.232735E1,5.8624864E0,5.6464867E1,5.3140823E1,3.3240411E0,2.2511797E1,3.0629028E1,1.489528E0,2.1022268E1,3.684737E0,2.694429E1],"tree_param":{"num_deleted":"0","num_feature":"6","num_nodes":"15","size_leaf_vector":"0"}},{"base_weights":[-1.1001155E-2,6.4383584E-1,-1.5117472E-1,2.1547212E-1,-1.0867881E-1],"categories":[],"categories_nodes":[],"categories_segments":[],"categories_sizes":[],"default_left":[0,0,0,0,0],"id":75,"left_children":[1,3,-1,-1,-1],"loss_changes":[3.079915E1,3.3283348E0,0E0,0E0,0E0],"parents":[2147483647,0,0,1,1],"right_children":[2,4,-1,-1,-1],"split_conditions":[3.0400467E1,2.6E1,-1.5117472E-1,2.1547212E-1,-1.0867881E-1],"split_indices":[4,2,0,0,0],"split_type":[0,0,0,0,0],"sum_hessian":[9.341364E1,3.9986023E1,5.3427616E1,3.749896E1,2.4870675E0],"tree_param":{"num_deleted":"0","num_feature":"6","num_nodes":"5","size_leaf_vector":"0"}},{"base_weights":[1.8285088E-2,2.8796372E-1,-1.49709E-1,-1.4301811E-1,5.109986E-1,5.923585E-1,-1.2161951E-1,-1.363765E-1,6.603784E-1,6.879007E-1,-7.900293E-2,1.1909001E-1,2.2191496E-1],"categories":[],"categories_nodes":[],"categories_segments":[],"categories_sizes":[],"default_left":[0,0,0,0,0,0,0,0,0,0,0,0,0],"id":76,"left_children":[1,3,-1,-1,5,7,-1,-1,9,11,-1,-1,-1],"loss_changes":[1.4283793E1,1.1714754E1,0E0,0E0,4.158452E0,3.7664833E0,0E0,0E0,1.3534851E0,3.8557243E-1,0E0,0E0,0E0],"parents":[2147483647,0,0,1,1,4,4,5,5,8,8,9,9],"right_children":[2,4,-1,-1,6,8,-1,-1,10,12,-1,-1,-1],"split_conditions":[6.9843544E1,6.0194614E1,-1.49709E-1,-1.4301811E-1,4.1E1,5.8171773E0,-1.2161951E-1,-1.363765E-1,2.9892866E1,6.1623135E1,-7.900293E-2,1.1909001E-1,2.2191496E-1],"split_indices":[4,4,0,0,0,5,0,0,3,4,0,0,0],"split_type":[0,0,0,0,0,0,0,0,0,0,0,0,0],"sum_hessian":[1.0035625E2,6.625866E1,3.409758E1,1.4704794E1,5.1553867E1,4.7674786E1,3.8790832E0,2.5617464E0,4.511304E1,4.405569E1,1.0573488E0,7.969554E0,3.6086136E1],"tree_param":{"num_deleted":"0","num_feature":"6","num_nodes":"13","size_leaf_vector":"0"}},{"base_weights":[-2.404467E-2,-1.4859223E-1,3.0631804E-1,6.5216166E-1,-1.4378977E-1,7.571855E-1,-1.1556389E-1,2.3051433E-1,6.97344E-2],"categories":[],"categories_nodes":[],"categories_segments":[],"categories_sizes":[],"default_left":[0,0,0,0,0,0,0,0,0],"id":77,"left_children":[1,-1,3,5,-1,7,-1,-1,-1],"loss_changes":[1.4122012E1,0E0,1.4813345E1,4.375168E0,0E0,2.3319244E-2,0E0,0E0,0E0],"parents":[2147483647,0,0,2,2,3,3,5,5],"right_children":[2,-1,4,6,-1,8,-1,-1,-1],"split_conditions":[6E1,-1.4859223E-1,7.489465E1,2.6E1,-1.4378977E-1,6.9383135E0,-1.1556389E-1,2.3051433E-1,6.97344E-2],"split_indices":[0,0,4,2,0,5,0,0,0],"split_type":[0,0,0,0,0,0,0,0,0],"sum_hessian":[8.873281E1,3.6362453E1,5.237036E1,3.6480724E1,1.5889635E1,3.3372215E1,3.1085098E0,3.222046E1,1.151756E0],"tree_param":{"num_deleted":"0","num_feature":"6","num_nodes":"9","size_leaf_vector":"0"}},{"base_weights":[-1.5994027E-2,4.4500002E-1,-1.4935462E-1,-1.4966284E-1,6.5501595E-1,-1.182376E-1,2.2966725E-1],"categories":[],"categories_nodes":[],"categories_segments":[],"categories_sizes":[],"default_left":[0,0,0,0,0,0,0],"id":78,"left_children":[1,3,-1,-1,5,-1,-1],"loss_changes":[2.0926657E1,9.874388E0,0E0,0E0,4.921032E0,0E0,0E0],"parents":[2147483647,0,0,1,1,4,4],"right_children":[2,4,-1,-1,6,-1,-1],"split_conditions":[5.527565E1,2.5E1,-1.4935462E-1,-1.4966284E-1,2.7253735E1,-1.182376E-1,2.2966725E-1],"split_indices":[4,2,0,0,3,0,0],"split_type":[0,0,0,0,0,0,0],"sum_hessian":[9.221079E1,4.7164574E1,4.5046223E1,8.333925E0,3.8830647E1,3.4568217E0,3.5373825E1],"tree_param":{"num_deleted":"0","num_feature":"6","num_nodes":"7","size_leaf_vector":"0"}},{"base_weights":[7.172795E-2,4.2024064E-1,-1.4863671E-1,5.8305776E-1,-1.3818495E-1,7.0303535E-1,-1.289616E-1,-1.1226075E-1,7.7214396E-1,-1.1843842E-1,8.25717E-1,2.645917E-1,-1.1783182E-1],"categories":[],"categories_nodes":[],"categories_segments":[],"categories_sizes":[],"default_left":[0,0,0,0,0,0,0,0,0,0,0,0,0],"id":79,"left_children":[1,3,-1,5,-1,7,-1,-1,9,-1,11,-1,-1],"loss_changes":[1.9914398E1,9.202176E0,0E0,6.744974E0,0E0,3.8459415E0,0E0,0E0,3.1533127E0,0E0,3.3325558E0,0E0,0E0],"parents":[2147483647,0,0,1,1,3,3,5,5,8,8,10,10],"right_children":[2,4,-1,6,-1,8,-1,-1,10,-1,12,-1,-1],"split_conditions":[6.526774E1,6.1E1,-1.4863671E-1,2.6E1,-1.3818495E-1,2.4018253E1,-1.289616E-1,-1.1226075E-1,3.5E1,-1.1843842E-1,3.2386974E1,2.645917E-1,-1.1783182E-1],"split_indices":[4,1,0,2,0,3,0,0,1,0,3,0,0],"split_type":[0,0,0,0,0,0,0,0,0,0,0,0,0],"sum_hessian":[9.8692E1,6.129044E1,3.7401558E1,5.2014236E1,9.276203E0,4.6779346E1,5.234893E0,2.5539944E0,4.422535E1,1.6616486E0,4.25637E1,4.0949326E1,1.6143749E0],"tree_param":{"num_deleted":"0","num_feature":"6","num_nodes":"13","size_leaf_vector":"0"}},{"base_weights":[-3.7796512E-2,-1.4845963E-1,2.633372E-1,-1.4063223E-1,4.6158776E-1,6.616405E-1,-1.3472636E-1,-7.834104E-2,2.0887403E-1],"categories":[],"categories_nodes":[],"categories_segments":[],"categories_sizes":[],"default_left":[0,0,0,0,0,0,0,0,0],"id":80,"left_children":[1,-1,3,-1,5,7,-1,-1,-1],"loss_changes":[1.2652486E1,0E0,8.271357E0,0E0,8.345139E0,1.3513393E0,0E0,0E0,0E0],"parents":[2147483647,0,0,2,2,4,4,5,5],"right_children":[2,-1,4,-1,6,8,-1,-1,-1],"split_conditions":[2.7014704E1,-1.4845963E-1,7.995151E1,-1.4063223E-1,2.6E1,3.1E1,-1.3472636E-1,-7.834104E-2,2.0887403E-1],"split_indices":[3,0,4,0,2,1,0,0,0],"split_type":[0,0,0,0,0,0,0,0,0],"sum_hessian":[8.997845E1,3.5481033E1,5.4497414E1,1.1322067E1,4.3175346E1,3.5623264E1,7.552083E0,1.0510477E0,3.4572216E1],"tree_param":{"num_deleted":"0","num_feature":"6","num_nodes":"9","size_leaf_vector":"0"}},{"base_weights":[-6.895254E-2,-1.4930834E-1,3.7936398E-1,-1.4045595E-1,2.1263914E-1],"categories":[],"categories_nodes":[],"categories_segments":[],"categories_sizes":[],"default_left":[0,0,0,0,0],"id":81,"left_children":[1,-1,3,-1,-1],"loss_changes":[1.682472E1,0E0,1.2303453E1,0E0,0E0],"parents":[2147483647,0,0,2,2],"right_children":[2,-1,4,-1,-1],"split_conditions":[9.001506E1,-1.4930834E-1,7.1E1,-1.4045595E-1,2.1263914E-1],"split_indices":[4,0,0,0,0],"split_type":[0,0,0,0,0],"sum_hessian":[8.554978E1,4.3673264E1,4.1876522E1,1.1603186E1,3.0273335E1],"tree_param":{"num_deleted":"0","num_feature":"6","num_nodes":"5","size_leaf_vector":"0"}},{"base_weights":[5.855853E-3,6.7383415E-1,-1.4980525E-1,7.549507E-1,-1.10802576E-1,2.0963696E-1,3.492093E-1],"categories":[],"categories_nodes":[],"categories_segments":[],"categories_sizes":[],"default_left":[0,0,0,0,0,0,0],"id":82,"left_children":[1,3,-1,5,-1,-1,-1],"loss_changes":[3.1605427E1,3.6912327E0,0E0,5.3770065E-2,0E0,0E0,0E0],"parents":[2147483647,0,0,1,1,3,3],"right_children":[2,4,-1,6,-1,-1,-1],"split_conditions":[1.6E1,3.1E1,-1.4980525E-1,1.5E1,-1.10802576E-1,2.0963696E-1,3.492093E-1],"split_indices":[2,1,0,2,0,0,0],"split_type":[0,0,0,0,0,0,0],"sum_hessian":[9.1657776E1,3.9326694E1,5.2331078E1,3.6745678E1,2.5810199E0,3.4691257E1,2.0544176E0],"tree_param":{"num_deleted":"0","num_feature":"6","num_nodes":"7","size_leaf_vector":"0"}},{"base_weights":[1.1696197E-2,-1.4932728E-1,4.8475182E-1,-1.3648102E-1,6.9630015E-1,2.3351078E-1,-1.093302E-1],"categories":[],"categories_nodes":[],"categories_segments":[],"categories_sizes":[],"default_left":[0,0,0,0,0,0,0],"id":83,"left_children":[1,-1,3,-1,5,-1,-1],"loss_changes":[2.2464382E1,0E0,9.922416E0,0E0,3.7515793E0,0E0,0E0],"parents":[2147483647,0,0,2,2,4,4],"right_children":[2,-1,4,-1,6,-1,-1],"split_conditions":[9.0076004E1,-1.4932728E-1,3.1E1,-1.3648102E-1,7.1E1,2.3351078E-1,-1.093302E-1],"split_indices":[4,0,1,0,1,0,0],"split_type":[0,0,0,0,0,0,0],"sum_hessian":[9.121202E1,4.3891342E1,4.732068E1,8.484111E0,3.8836567E1,3.6294643E1,2.5419245E0],"tree_param":{"num_deleted":"0","num_feature":"6","num_nodes":"7","size_leaf_vector":"0"}},{"base_weights":[8.511137E-2,3.9195147E-1,-1.4850366E-1,-1.371247E-1,5.29876E-1,-1.2959418E-1,6.3773507E-1,7.133432E-1,-1.1822479E-1,7.834078E-1,-1.788188E-1,-1.06973074E-1,2.4767515E-1,-1.0945171E-1,6.2418923E-2],"categories":[],"categories_nodes":[],"categories_segments":[],"categories_sizes":[],"default_left":[0,0,0,0,0,0,0,0,0,0,0,0,0,0,0],"id":84,"left_children":[1,3,-1,-1,5,-1,7,9,-1,11,13,-1,-1,-1,-1],"loss_changes":[1.7905128E1,7.9282436E0,0E0,0E0,6.1812696E0,0E0,4.3058453E0,3.166996E0,0E0,2.461996E0,3.882591E-1,0E0,0E0,0E0,0E0],"parents":[2147483647,0,0,1,1,4,4,6,6,7,7,9,9,10,10],"right_children":[2,4,-1,-1,6,-1,8,10,-1,12,14,-1,-1,-1,-1],"split_conditions":[7.0416245E1,5.5E1,-1.4850366E-1,-1.371247E-1,3.0400467E1,-1.2959418E-1,4.1E1,7.354287E0,-1.1822479E-1,4.548202E0,3.050421E1,-1.06973074E-1,2.4767515E-1,-1.0945171E-1,6.2418923E-2],"split_indices":[4,1,0,0,4,0,0,5,0,5,3,0,0,0,0],"split_type":[0,0,0,0,0,0,0,0,0,0,0,0,0,0,0],"sum_hessian":[9.849773E1,6.463515E1,3.3862583E1,8.709198E0,5.592595E1,5.335996E0,5.058995E1,4.7423565E1,3.1663854E0,4.408344E1,3.3401277E0,1.3068131E0,4.2776627E1,2.2940705E0,1.0460572E0],"tree_param":{"num_deleted":"0","num_feature":"6","num_nodes":"15","size_leaf_vector":"0"}},{"base_weights":[-3.223676E-2,3.8371357E-1,-1.4923757E-1,6.0747737E-1,-1.3836955E-1,-1.0628203E-1,6.772407E-1,2.1161316E-1,2.1513656E-1,1.1952495E-1,-1.8240687E-2],"categories":[],"categories_nodes":[],"categories_segments":[],"categories_sizes":[],"default_left":[0,0,0,0,0,0,0,0,0,0,0],"id":85,"left_children":[1,3,-1,5,-1,-1,7,-1,9,-1,-1],"loss_changes":[1.7829845E1,9.485834E0,0E0,2.8517084E0,0E0,0E0,3.2460594E-1,0E0,2.0333648E-1,0E0,0E0],"parents":[2147483647,0,0,1,1,3,3,6,6,8,8],"right_children":[2,4,-1,6,-1,-1,8,-1,10,-1,-1],"split_conditions":[3.1E1,2.5007551E1,-1.4923757E-1,3.5E1,-1.3836955E-1,-1.0628203E-1,4E1,2.1161316E-1,5.892914E0,1.1952495E-1,-1.8240687E-2],"split_indices":[1,3,0,2,0,0,0,0,5,0,0],"split_type":[0,0,0,0,0,0,0,0,0,0,0],"sum_hessian":[9.0153114E1,4.768955E1,4.2463562E1,3.7926624E1,9.762924E0,2.2892349E0,3.563739E1,3.3095814E1,2.5415761E0,1.2604928E0,1.2810833E0],"tree_param":{"num_deleted":"0","num_feature":"6","num_nodes":"11","size_leaf_vector":"0"}},{"base_weights":[2.9404515E-2,-1.4859223E-1,3.344679E-1,-1.37788E-1,4.764516E-1,5.9202164E-1,-1.2992834E-1,6.3913316E-1,-1.0248558E-1,6.787145E-1,-9.875395E-2,1.5487736E-1,2.4806346E-1],"categories":[],"categories_nodes":[],"categories_segments":[],"categories_sizes":[],"default_left":[0,0,0,0,0,0,0,0,0,0,0,0,0],"id":86,"left_children":[1,-1,3,-1,5,7,-1,9,-1,11,-1,-1,-1],"loss_changes":[1.6257517E1,0E0,7.4505715E0,0E0,6.029587E0,2.3803253E0,0E0,2.0301495E0,0E0,6.7108345E-1,0E0,0E0,0E0],"parents":[2147483647,0,0,2,2,4,4,5,5,7,7,9,9],"right_children":[2,-1,4,-1,6,8,-1,10,-1,12,-1,-1,-1],"split_conditions":[6E1,-1.4859223E-1,8.012267E1,-1.37788E-1,4.6E1,1E2,-1.2992834E-1,8.50864E1,-1.0248558E-1,8.214004E1,-9.875395E-2,1.5487736E-1,2.4806346E-1],"split_indices":[0,0,4,0,2,0,0,4,0,4,0,0,0],"split_type":[0,0,0,0,0,0,0,0,0,0,0,0,0],"sum_hessian":[9.952985E1,3.6362453E1,6.3167393E1,9.245502E0,5.392189E1,4.815256E1,5.7693295E0,4.6139786E1,2.0127747E0,4.4615147E1,1.5246397E0,2.3420126E1,2.1195019E1],"tree_param":{"num_deleted":"0","num_feature":"6","num_nodes":"13","size_leaf_vector":"0"}},{"base_weights":[-4.3702763E-2,-1.5001725E-1,3.7646738E-1,6.1946774E-1,-1.3913523E-1,7.007456E-1,-1.08815186E-1,-8.2652435E-2,2.230595E-1],"categories":[],"categories_nodes":[],"categories_segments":[],"categories_sizes":[],"default_left":[0,0,0,0,0,0,0,0,0],"id":87,"left_children":[1,-1,3,5,-1,7,-1,-1,-1],"loss_changes":[1.7386683E1,0E0,9.93867E0,3.2153215E0,0E0,1.6500645E0,0E0,0E0,0E0],"parents":[2147483647,0,0,2,2,3,3,5,5],"right_children":[2,-1,4,6,-1,8,-1,-1,-1],"split_conditions":[8E1,-1.5001725E-1,3.1E1,2.7027662E1,-1.3913523E-1,3.6E1,-1.08815186E-1,-8.2652435E-2,2.230595E-1],"split_indices":[0,0,1,3,0,2,0,0,0],"split_type":[0,0,0,0,0,0,0,0,0],"sum_hessian":[8.8693504E1,4.2424896E1,4.626861E1,3.6093224E1,1.01753845E1,3.359935E1,2.4938731E0,1.1823496E0,3.2417004E1],"tree_param":{"num_deleted":"0","num_feature":"6","num_nodes":"9","size_leaf_vector":"0"}},{"base_weights":[-2.4705572E-2,-1.4855792E-1,5.6329167E-1,-1.015461E-1,1.8938495E-1],"categories":[],"categories_nodes":[],"categories_segments":[],"categories_sizes":[],"default_left":[0,0,0,0,0],"id":88,"left_children":[1,-1,3,-1,-1],"loss_changes":[2.0991316E1,0E0,2.2828093E0,0E0,0E0],"parents":[2147483647,0,0,2,2],"right_children":[2,-1,4,-1,-1],"split_conditions":[1.2E2,-1.4855792E-1,8.40923E1,-1.015461E-1,1.8938495E-1],"split_indices":[1,0,4,0,0],"split_type":[0,0,0,0,0],"sum_hessian":[7.386979E1,4.112297E1,3.274682E1,2.0169837E0,3.0729836E1],"tree_param":{"num_deleted":"0","num_feature":"6","num_nodes":"5","size_leaf_vector":"0"}},{"base_weights":[-3.8045708E-2,-1.4791505E-1,3.792202E-1,-1.3634872E-1,1.9011773E-1],"categories":[],"categories_nodes":[],"categories_segments":[],"categories_sizes":[],"default_left":[0,0,0,0,0],"id":89,"left_children":[1,-1,3,-1,-1],"loss_changes":[1.4145827E1,0E0,8.545654E0,0E0,0E0],"parents":[2147483647,0,0,2,2],"right_children":[2,-1,4,-1,-1],"split_conditions":[7E1,-1.4791505E-1,6.9E1,-1.3634872E-1,1.9011773E-1],"split_indices":[1,0,0,0,0],"split_type":[0,0,0,0,0],"sum_hessian":[7.252266E1,3.460561E1,3.791705E1,8.683995E0,2.9233053E1],"tree_param":{"num_deleted":"0","num_feature":"6","num_nodes":"5","size_leaf_vector":"0"}},{"base_weights":[4.7615398E-2,2.94622E-1,-1.464832E-1,-1.399364E-1,4.8717967E-1,-1.1405916E-1,5.530149E-1,-9.911832E-2,5.97403E-1,-9.166362E-2,6.358718E-1,1.3385653E-1,2.458463E-1],"categories":[],"categories_nodes":[],"categories_segments":[],"categories_sizes":[],"default_left":[0,0,0,0,0,0,0,0,0,0,0,0,0],"id":90,"left_children":[1,3,-1,-1,5,-1,7,-1,9,-1,11,-1,-1],"loss_changes":[1.144693E1,8.884516E0,0E0,0E0,2.9303646E0,0E0,1.9494638E0,0E0,1.6844292E0,0E0,1.0787525E0,0E0,0E0],"parents":[2147483647,0,0,1,1,4,4,6,6,8,8,10,10],"right_children":[2,4,-1,-1,6,-1,8,-1,10,-1,12,-1,-1],"split_conditions":[7.004557E1,6.0132637E1,-1.464832E-1,-1.399364E-1,2.5198578E1,-1.1405916E-1,5.3E1,-9.911832E-2,2E1,-9.166362E-2,3.9E1,1.3385653E-1,2.458463E-1],"split_indices":[4,4,0,0,3,0,1,0,0,0,0,0,0],"split_type":[0,0,0,0,0,0,0,0,0,0,0,0,0],"sum_hessian":[8.439061E1,5.807335E1,2.6317265E1,1.1438947E1,4.6634403E1,2.9530509E0,4.368135E1,1.7815615E0,4.189979E1,1.4284401E0,4.0471348E1,2.1593895E1,1.8877455E1],"tree_param":{"num_deleted":"0","num_feature":"6","num_nodes":"13","size_leaf_vector":"0"}},{"base_weights":[-3.8173646E-2,6.029356E-1,-1.4864622E-1,-1.572091E-2,1.8915182E-1],"categories":[],"categories_nodes":[],"categories_segments":[],"categories_sizes":[],"default_left":[0,0,0,0,0],"id":91,"left_children":[1,3,-1,-1,-1],"loss_changes":[2.1819035E1,5.933399E-1,0E0,0E0,0E0],"parents":[2147483647,0,0,1,1],"right_children":[2,4,-1,-1,-1],"split_conditions":[2.001731E1,5.9935136E0,-1.4864622E-1,-1.572091E-2,1.8915182E-1],"split_indices":[4,5,0,0,0],"split_type":[0,0,0,0,0],"sum_hessian":[7.240097E1,3.0010605E1,4.239037E1,1.1752274E0,2.8835377E1],"tree_param":{"num_deleted":"0","num_feature":"6","num_nodes":"5","size_leaf_vector":"0"}},{"base_weights":[4.814458E-3,-1.4795808E-1,4.347243E-1,6.0922235E-1,-1.3183606E-1,-1.0593725E-1,6.8648845E-1,6.1074663E-2,2.1008673E-1],"categories":[],"categories_nodes":[],"categories_segments":[],"categories_sizes":[],"default_left":[0,0,0,0,0,0,0,0,0],"id":92,"left_children":[1,-1,3,5,-1,-1,7,-1,-1],"loss_changes":[1.6630272E1,0E0,6.626021E0,2.8571997E0,0E0,0E0,7.6636314E-2,0E0,0E0],"parents":[2147483647,0,0,2,2,3,3,6,6],"right_children":[2,-1,4,6,-1,-1,8,-1,-1],"split_conditions":[9.027214E1,-1.4795808E-1,3.6E1,1.6E1,-1.3183606E-1,-1.0593725E-1,2.5517914E1,6.1074663E-2,2.1008673E-1],"split_indices":[4,0,2,2,0,0,3,0,0],"split_type":[0,0,0,0,0,0,0,0,0],"sum_hessian":[7.567435E1,3.4992172E1,4.068218E1,3.4165382E1,6.5167933E0,2.2738943E0,3.1891489E1,1.3237271E0,3.0567762E1],"tree_param":{"num_deleted":"0","num_feature":"6","num_nodes":"9","size_leaf_vector":"0"}},{"base_weights":[-3.277397E-2,-1.4762412E-1,3.270555E-1,6.1266583E-1,-4.3350142E-1,-4.8077025E-2,1.9530553E-1,-1.449387E-1,-1.436555E-1,2.3246901E-2,-8.366127E-2],"categories":[],"categories_nodes":[],"categories_segments":[],"categories_sizes":[],"default_left":[0,0,0,0,0,0,0,0,0,0,0],"id":93,"left_children":[1,-1,3,5,7,-1,-1,-1,9,-1,-1],"loss_changes":[1.2647304E1,0E0,9.598227E0,1.0425024E0,1.0773802E-1,0E0,0E0,0E0,1.1799908E-1,0E0,0E0],"parents":[2147483647,0,0,2,2,3,3,4,4,8,8],"right_children":[2,-1,4,6,8,-1,-1,-1,10,-1,-1],"split_conditions":[8E1,-1.4762412E-1,6.936385E1,2.3078955E1,7.0420895E0,-4.8077025E-2,1.9530553E-1,-1.449387E-1,7.748247E1,2.3246901E-2,-8.366127E-2],"split_indices":[0,0,4,3,5,0,0,0,4,0,0],"split_type":[0,0,0,0,0,0,0,0,0,0,0],"sum_hessian":[7.455041E1,3.2587006E1,4.19634E1,3.0648493E1,1.131491E1,1.2986268E0,2.9349867E1,9.091423E0,2.2234867E0,1.005654E0,1.2178327E0],"tree_param":{"num_deleted":"0","num_feature":"6","num_nodes":"11","size_leaf_vector":"0"}},{"base_weights":[1.6986158E-2,-1.4833988E-1,5.313282E-1,6.440273E-1,-1.2084006E-1,-9.824482E-2,2.0736907E-1],"categories":[],"categories_nodes":[],"categories_segments":[],"categories_sizes":[],"default_left":[0,0,0,0,0,0,0],"id":94,"left_children":[1,-1,3,5,-1,-1,-1],"loss_changes":[2.0900318E1,0E0,4.4280415E0,1.864377E0,0E0,0E0,0E0],"parents":[2147483647,0,0,2,2,3,3],"right_children":[2,-1,4,6,-1,-1,-1],"split_conditions":[1E2,-1.4833988E-1,2.6E1,6.865258E1,-1.2084006E-1,-9.824482E-2,2.0736907E-1],"split_indices":[0,0,2,4,0,0,0],"split_type":[0,0,0,0,0,0,0],"sum_hessian":[7.745161E1,3.885427E1,3.859734E1,3.471916E1,3.8781796E0,1.3336093E0,3.338555E1],"tree_param":{"num_deleted":"0","num_feature":"6","num_nodes":"7","size_leaf_vector":"0"}},{"base_weights":[-3.7629288E-2,-1.4855792E-1,5.578433E-1,1.892401E-1,-1.0257007E-1],"categories":[],"categories_nodes":[],"categories_segments":[],"categories_sizes":[],"default_left":[0,0,0,0,0],"id":95,"left_children":[1,-1,3,-1,-1],"loss_changes":[2.0317158E1,0E0,2.3445034E0,0E0,0E0],"parents":[2147483647,0,0,2,2],"right_children":[2,-1,4,-1,-1],"split_conditions":[1.2E2,-1.4855792E-1,8.404404E1,1.892401E-1,-1.0257007E-1],"split_indices":[1,0,4,0,0],"split_type":[0,0,0,0,0],"sum_hessian":[7.2553635E1,4.112297E1,3.1430666E1,2.9349714E1,2.080951E0],"tree_param":{"num_deleted":"0","num_feature":"6","num_nodes":"5","size_leaf_vector":"0"}},{"base_weights":[6.4230636E-2,-1.4699878E-1,3.1035176E-1,-3.2795325E-1,4.0758336E-1,-1.32579E-1,-1.5640096E-3,-1.2369027E-1,4.8181865E-1,2.5480274E-2,-2.1945737E-2,-1.15112975E-1,5.379861E-1,5.8059E-1,-1.0227569E-1,1.8693998E-1,-1.150911E-1],"categories":[],"categories_nodes":[],"categories_segments":[],"categories_sizes":[],"default_left":[0,0,0,0,0,0,0,0,0,0,0,0,0,0,0,0,0],"id":96,"left_children":[1,-1,3,5,7,-1,9,-1,11,-1,-1,-1,13,15,-1,-1,-1],"loss_changes":[1.3090636E1,0E0,4.2482295E0,3.4594202E-1,3.727457E0,0E0,2.7361233E-2,0E0,2.8134136E0,0E0,0E0,0E0,2.0991564E0,2.240755E0,0E0,0E0,0E0],"parents":[2147483647,0,0,2,2,3,3,4,4,6,6,8,8,12,12,13,13],"right_children":[2,-1,4,6,8,-1,10,-1,12,-1,-1,-1,14,16,-1,-1,-1],"split_conditions":[6E1,-1.4699878E-1,3.6E1,3.5E1,3.5E1,-1.32579E-1,3.9E1,-1.2369027E-1,6.014572E0,2.5480274E-2,-2.1945737E-2,-1.15112975E-1,4.6E1,7.4974694E0,-1.0227569E-1,1.8693998E-1,-1.150911E-1],"split_indices":[0,0,1,1,2,0,2,0,5,0,0,0,2,5,0,0,0],"split_type":[0,0,0,0,0,0,0,0,0,0,0,0,0,0,0,0,0],"sum_hessian":[9.3852745E1,2.8556677E1,6.5296074E1,8.3179E0,5.6978172E1,5.9026628E0,2.4152367E0,4.3525777E0,5.2625595E1,1.0093021E0,1.4059346E0,2.8515937E0,4.9774E1,4.779653E1,1.9774668E0,4.611559E1,1.680943E0],"tree_param":{"num_deleted":"0","num_feature":"6","num_nodes":"17","size_leaf_vector":"0"}},{"base_weights":[-1.4157457E-2,5.8010703E-1,-1.4967653E-1,1.9372292E-1,-1.0127773E-1],"categories":[],"categories_nodes":[],"categories_segments":[],"categories_sizes":[],"default_left":[0,0,0,0,0],"id":97,"left_children":[1,3,-1,-1,-1],"loss_changes":[2.2510473E1,2.3331928E0,0E0,0E0,0E0],"parents":[2147483647,0,0,1,1],"right_children":[2,4,-1,-1,-1],"split_conditions":[3.0400467E1,2.6E1,-1.4967653E-1,1.9372292E-1,-1.0127773E-1],"split_indices":[4,2,0,0,0],"split_type":[0,0,0,0,0],"sum_hessian":[7.613547E1,3.4116245E1,4.201922E1,3.211561E1,2.000637E0],"tree_param":{"num_deleted":"0","num_feature":"6","num_nodes":"5","size_leaf_vector":"0"}},{"base_weights":[2.43989E-2,2.58419E-1,-1.4817831E-1,-1.4014116E-1,4.3722975E-1,5.004827E-1,-1.1547166E-1,-1.2873745E-1,5.5826753E-1,2.304188E-1,4.5572498E-1,-8.563644E-2,1.5060669E-1],"categories":[],"categories_nodes":[],"categories_segments":[],"categories_sizes":[],"default_left":[0,0,0,0,0,0,0,0,0,0,0,0,0],"id":98,"left_children":[1,3,-1,-1,5,7,-1,-1,9,-1,11,-1,-1],"loss_changes":[1.081145E1,8.162048E0,0E0,0E0,2.7785501E0,2.743266E0,0E0,0E0,6.033392E-1,0E0,1.2491179E0,0E0,0E0],"parents":[2147483647,0,0,1,1,4,4,5,5,8,8,10,10],"right_children":[2,4,-1,-1,6,8,-1,-1,10,-1,12,-1,-1],"split_conditions":[6.9843544E1,6.0194614E1,-1.4817831E-1,-1.4014116E-1,4.1E1,5.8213477E0,-1.1547166E-1,-1.2873745E-1,6.600949E0,2.304188E-1,6.726529E0,-8.563644E-2,1.5060669E-1],"split_indices":[4,4,0,0,0,5,0,0,5,0,5,0,0],"split_type":[0,0,0,0,0,0,0,0,0,0,0,0,0],"sum_hessian":[8.707842E1,6.0337837E1,2.674059E1,1.1611136E1,4.87267E1,4.560891E1,3.1177905E0,2.2930725E0,4.3315838E1,1.2090108E1,3.1225729E1,1.5321195E0,2.969361E1],"tree_param":{"num_deleted":"0","num_feature":"6","num_nodes":"13","size_leaf_vector":"0"}},{"base_weights":[-2.1697965E-2,-1.4699878E-1,2.880552E-1,5.982802E-1,-1.4098619E-1,6.963947E-1,-1.1055333E-1,1.8695E-1,1.0105895E0,1.1129411E-1,3.846607E-1],"categories":[],"categories_nodes":[],"categories_segments":[],"categories_sizes":[],"default_left":[0,0,0,0,0,0,0,0,0,0,0],"id":99,"left_children":[1,-1,3,5,-1,7,-1,-1,9,-1,-1],"loss_changes":[1.0775513E1,0E0,1.0805473E1,3.3107824E0,0E0,5.0744057E-2,0E0,0E0,2.1610594E-1,0E0,0E0],"parents":[2147483647,0,0,2,2,3,3,5,5,8,8],"right_children":[2,-1,4,6,-1,8,-1,-1,10,-1,-1],"split_conditions":[6E1,-1.4699878E-1,2.6E1,1.01E2,-1.4098619E-1,2.4E1,-1.1055333E-1,1.8695E-1,5.2E1,1.1129411E-1,3.846607E-1],"split_indices":[0,0,2,0,0,2,0,0,1,0,0],"split_type":[0,0,0,0,0,0,0,0,0,0,0],"sum_hessian":[7.231176E1,2.8556677E1,4.375508E1,3.1197731E1,1.2557351E1,2.8577263E1,2.6204681E0,2.559526E1,2.9820032E0,1.594061E0,1.3879421E0],"tree_param":{"num_deleted":"0","num_feature":"6","num_nodes":"11","size_leaf_vector":"0"}},{"base_weights":[-1.8107135E-2,4.0248474E-1,-1.4796923E-1,-1.4370391E-1,5.88761E-1,-1.1118303E-1,2.0483677E-1],"categories":[],"categories_nodes":[],"categories_segments":[],"categories_sizes":[],"default_left":[0,0,0,0,0,0,0],"id":100,"left_children":[1,3,-1,-1,5,-1,-1],"loss_changes":[1.5532997E1,7.0561414E0,0E0,0E0,3.365796E0,0E0,0E0],"parents":[2147483647,0,0,1,1,4,4],"right_children":[2,4,-1,-1,6,-1,-1],"split_conditions":[5.5187923E1,2.5E1,-1.4796923E-1,-1.4370391E-1,2.7253735E1,-1.1118303E-1,2.0483677E-1],"split_indices":[4,2,0,0,3,0,0],"split_type":[0,0,0,0,0,0,0],"sum_hessian":[7.573643E1,4.025475E1,3.5481678E1,6.748401E0,3.3506348E1,2.7282724E0,3.0778076E1],"tree_param":{"num_deleted":"0","num_feature":"6","num_nodes":"7","size_leaf_vector":"0"}},{"base_weights":[6.4394146E-2,3.5654572E-1,-1.470892E-1,4.8132494E-1,-1.3406117E-1,-1.3033761E-1,5.6968707E-1,-1.12249516E-1,6.3471836E-1,6.843073E-1,-1.156714E-1,2.1861644E-1,-9.535375E-2],"categories":[],"categories_nodes":[],"categories_segments":[],"categories_sizes":[],"default_left":[0,0,0,0,0,0,0,0,0,0,0,0,0],"id":101,"left_children":[1,3,-1,5,-1,-1,7,-1,9,11,-1,-1,-1],"loss_changes":[1.4296595E1,5.9953094E0,0E0,4.324978E0,0E0,0E0,3.0847263E0,0E0,2.4782925E0,2.1054726E0,0E0,0E0,0E0],"parents":[2147483647,0,0,1,1,3,3,6,6,8,8,9,9],"right_children":[2,4,-1,6,-1,-1,8,-1,10,12,-1,-1,-1],"split_conditions":[6.498743E1,6.1E1,-1.470892E-1,3.5E1,-1.3406117E-1,-1.3033761E-1,2.4018253E1,-1.12249516E-1,3.239524E1,4.1E1,-1.156714E-1,2.1861644E-1,-9.535375E-2],"split_indices":[4,1,0,1,0,0,3,0,3,0,0,0,0],"split_type":[0,0,0,0,0,0,0,0,0,0,0,0,0],"sum_hessian":[8.6142456E1,5.6658234E1,2.9484222E1,4.9388557E1,7.269675E0,4.001393E0,4.5387165E1,2.6191847E0,4.2767982E1,4.1099724E1,1.6682591E0,3.96168E1,1.4829243E0],"tree_param":{"num_deleted":"0","num_feature":"6","num_nodes":"13","size_leaf_vector":"0"}},{"base_weights":[-4.2587694E-2,-1.4683752E-1,2.3797686E-1,-1.3736106E-1,4.204174E-1,5.977561E-1,-1.301797E-1,1.8885034E-1,-2.8602313E-2],"categories":[],"categories_nodes":[],"categories_segments":[],"categories_sizes":[],"default_left":[0,0,0,0,0,0,0,0,0],"id":102,"left_children":[1,-1,3,-1,5,7,-1,-1,-1],"loss_changes":[9.394472E0,0E0,6.049062E0,0E0,5.876003E0,7.4472046E-1,0E0,0E0,0E0],"parents":[2147483647,0,0,2,2,4,4,5,5],"right_children":[2,-1,4,-1,6,8,-1,-1,-1],"split_conditions":[2.7014704E1,-1.4683752E-1,7.995151E1,-1.3736106E-1,2.6E1,8.9996155E1,-1.301797E-1,1.8885034E-1,-2.8602313E-2],"split_indices":[3,0,4,0,2,4,0,0,0],"split_type":[0,0,0,0,0,0,0,0,0],"sum_hessian":[7.3001305E1,2.7868713E1,4.513259E1,9.061479E0,3.6071114E1,3.01195E1,5.9516144E0,2.888813E1,1.2313678E0],"tree_param":{"num_deleted":"0","num_feature":"6","num_nodes":"9","size_leaf_vector":"0"}},{"base_weights":[-6.877251E-2,-1.4788808E-1,3.4957123E-1,-1.3698424E-1,1.9165237E-1],"categories":[],"categories_nodes":[],"categories_segments":[],"categories_sizes":[],"default_left":[0,0,0,0,0],"id":103,"left_children":[1,-1,3,-1,-1],"loss_changes":[1.2669788E1,0E0,8.6969185E0,0E0,0E0],"parents":[2147483647,0,0,2,2],"right_children":[2,-1,4,-1,-1],"split_conditions":[9.001506E1,-1.4788808E-1,7.1E1,-1.3698424E-1,1.9165237E-1],